/* Generated by Edge Impulse
 *
 * Permission is hereby granted, free of charge, to any person obtaining a copy
 * of this software and associated documentation files (the "Software"), to deal
 * in the Software without restriction, including without limitation the rights
 * to use, copy, modify, merge, publish, distribute, sublicense, and/or sell
 * copies of the Software, and to permit persons to whom the Software is
 * furnished to do so, subject to the following conditions:
 *
 * The above copyright notice and this permission notice shall be included in
 * all copies or substantial portions of the Software.
 *
 * THE SOFTWARE IS PROVIDED "AS IS", WITHOUT WARRANTY OF ANY KIND, EXPRESS OR
 * IMPLIED, INCLUDING BUT NOT LIMITED TO THE WARRANTIES OF MERCHANTABILITY,
 * FITNESS FOR A PARTICULAR PURPOSE AND NONINFRINGEMENT. IN NO EVENT SHALL THE
 * AUTHORS OR COPYRIGHT HOLDERS BE LIABLE FOR ANY CLAIM, DAMAGES OR OTHER
 * LIABILITY, WHETHER IN AN ACTION OF CONTRACT, TORT OR OTHERWISE, ARISING FROM,
 * OUT OF OR IN CONNECTION WITH THE SOFTWARE OR THE USE OR OTHER DEALINGS IN THE
 * SOFTWARE.
 */
// Generated on: 26.05.2023 23:18:44

#include <stdio.h>
#include <stdlib.h>
#include "edge-impulse-sdk/tensorflow/lite/c/builtin_op_data.h"
#include "edge-impulse-sdk/tensorflow/lite/c/common.h"
#include "edge-impulse-sdk/tensorflow/lite/micro/micro_mutable_op_resolver.h"
#include "edge-impulse-sdk/porting/ei_classifier_porting.h"

#if EI_CLASSIFIER_PRINT_STATE
#if defined(__cplusplus) && EI_C_LINKAGE == 1
extern "C" {
    extern void ei_printf(const char *format, ...);
}
#else
extern void ei_printf(const char *format, ...);
#endif
#endif

#if defined __GNUC__
#define ALIGN(X) __attribute__((aligned(X)))
#elif defined _MSC_VER
#define ALIGN(X) __declspec(align(X))
#elif defined __TASKING__
#define ALIGN(X) __align(X)
#endif

#ifndef EI_MAX_SCRATCH_BUFFER_COUNT
#define EI_MAX_SCRATCH_BUFFER_COUNT 4
#endif // EI_MAX_SCRATCH_BUFFER_COUNT

#ifndef EI_MAX_OVERFLOW_BUFFER_COUNT
#define EI_MAX_OVERFLOW_BUFFER_COUNT 10
#endif // EI_MAX_OVERFLOW_BUFFER_COUNT

using namespace tflite;
using namespace tflite::ops;
using namespace tflite::ops::micro;

namespace {

#if defined(EI_CLASSIFIER_ALLOCATION_STATIC_HIMAX) || defined(EI_CLASSIFIER_ALLOCATION_STATIC_HIMAX_GNU)
constexpr int kTensorArenaSize = 41954656;
#else
constexpr int kTensorArenaSize = 41953632;
#endif

#if defined(EI_CLASSIFIER_ALLOCATION_STATIC)
uint8_t tensor_arena[kTensorArenaSize] ALIGN(16);
#elif defined(EI_CLASSIFIER_ALLOCATION_STATIC_HIMAX)
#pragma Bss(".tensor_arena")
uint8_t tensor_arena[kTensorArenaSize] ALIGN(16);
#pragma Bss()
#elif defined(EI_CLASSIFIER_ALLOCATION_STATIC_HIMAX_GNU)
uint8_t tensor_arena[kTensorArenaSize] ALIGN(16) __attribute__((section(".tensor_arena")));
#else
#define EI_CLASSIFIER_ALLOCATION_HEAP 1
uint8_t* tensor_arena = NULL;
#endif

static uint8_t* tensor_boundary;
static uint8_t* current_location;

template <int SZ, class T> struct TfArray {
  int sz; T elem[SZ];
};
enum used_operators_e {
  OP_CONV_2D, OP_DEPTHWISE_CONV_2D, OP_PAD, OP_ADD, OP_SOFTMAX,  OP_LAST
};
struct TensorInfo_t { // subset of TfLiteTensor used for initialization from constant memory
  TfLiteAllocationType allocation_type;
  TfLiteType type;
  void* data;
  TfLiteIntArray* dims;
  size_t bytes;
};
struct NodeInfo_t { // subset of TfLiteNode used for initialization from constant memory
  struct TfLiteIntArray* inputs;
  struct TfLiteIntArray* outputs;
  void* builtin_data;
  used_operators_e used_op_index;
};

typedef struct {
  TfLiteTensor tensor;
  int16_t index;
} TfLiteTensorWithIndex;

typedef struct {
  TfLiteEvalTensor tensor;
  int16_t index;
} TfLiteEvalTensorWithIndex;

TfLiteContext ctx{};
static const int MAX_TFL_TENSOR_COUNT = 4;
static TfLiteTensorWithIndex tflTensors[MAX_TFL_TENSOR_COUNT];
static const int MAX_TFL_EVAL_COUNT = 4;
static TfLiteEvalTensorWithIndex tflEvalTensors[MAX_TFL_EVAL_COUNT];
TfLiteRegistration registrations[OP_LAST];
TfLiteNode tflNodes[27];

const TfArray<4, int> tensor_dimension0 = { 4, { 1,660,660,1 } };
const ALIGN(16) float tensor_data1[32] = { -0.03047838993370533, -0.043968237936496735, -0.048964139074087143, -0.02972712554037571, -0.031298812478780746, -0.0025983804371207952, -0.021606530994176865, 0.063193261623382568, -0.050412822514772415, -0.045762505382299423, -0.012275557033717632, -0.012515629641711712, 0.094599820673465729, -0.047996394336223602, -0.026864709332585335, -0.053245972841978073, -0.031709715723991394, -0.012113703414797783, -0.032962333410978317, -0.0029229866340756416, 0.0049204076640307903, -0.072003252804279327, 0.12008728832006454, -0.017351195216178894, -0.011204313486814499, 0.1002345010638237, -0.021500585600733757, -0.008643575944006443, -0.0053962473757565022, -0.010605276562273502, -0.011233214288949966, -0.036889240145683289, };
const TfArray<1, int> tensor_dimension1 = { 1, { 32 } };
const ALIGN(16) int32_t tensor_data2[4*2] = { 
  0, 0, 
  1, 1, 
  1, 1, 
  0, 0, 
};
const TfArray<2, int> tensor_dimension2 = { 2, { 4,2 } };
const ALIGN(16) int32_t tensor_data3[4*2] = { 
  0, 0, 
  0, 1, 
  0, 1, 
  0, 0, 
};
const TfArray<2, int> tensor_dimension3 = { 2, { 4,2 } };
const ALIGN(16) float tensor_data4[16] = { 0.17421689629554749, 0.93275880813598633, 0.32625195384025574, 0.1709422767162323, 1.3663678169250488, 1.3781237602233887, 0.90550136566162109, 0.58388054370880127, 0.89541494846343994, 0.40695250034332275, 0.8085252046585083, 0.56088650226593018, 1.6104559898376465, 0.016890287399291992, 0.46790459752082825, 0.67627221345901489, };
const TfArray<1, int> tensor_dimension4 = { 1, { 16 } };
const ALIGN(16) float tensor_data5[16] = { 2.2602260112762451, -0.316550612449646, -0.026928842067718506, 0.48404523730278015, -2.0372004508972168, 0.51095491647720337, 1.7623882293701172, 1.3794913291931152, 0.035994172096252441, -0.42213785648345947, -0.39882677793502808, 0.39439433813095093, -0.46649372577667236, -0.042565882205963135, -0.19527977705001831, -0.66654074192047119, };
const TfArray<1, int> tensor_dimension5 = { 1, { 16 } };
const ALIGN(16) float tensor_data6[48] = { 0.52750879526138306, -0.17562152445316315, -0.088442005217075348, 0.45519691705703735, 0.9127652645111084, 0.70810854434967041, -0.28536528348922729, 0.87614566087722778, 0.48768037557601929, 0.6828426718711853, 0.019032634794712067, 0.9492761492729187, 0.25937455892562866, 0.2113802433013916, -0.28128394484519958, 0.066669665277004242, 0.67336779832839966, 0.89420789480209351, 0.71797078847885132, -0.27405893802642822, 0.3890499472618103, -0.28464886546134949, -0.001732617849484086, 0.80366063117980957, -0.083894163370132446, -0.51246488094329834, 0.62451082468032837, 0.001351676881313324, 0.71040225028991699, 1.0112210512161255, 0.77886313199996948, -0.064964301884174347, 0.13391223549842834, -0.04263228178024292, 0.65476083755493164, 0.026764398440718651, 0.24768754839897156, -0.13998913764953613, 0.41533717513084412, 0.56658512353897095, 0.55062782764434814, 0.58080297708511353, 0.11280336230993271, -0.19759437441825867, 0.2661568820476532, 0.51783245801925659, 0.42842480540275574, -0.0067125591449439526, };
const TfArray<1, int> tensor_dimension6 = { 1, { 48 } };
const ALIGN(16) float tensor_data7[48] = { 0.9893796443939209, 0.59141147136688232, 0.99363291263580322, 0.21455724537372589, 0.0044296868145465851, -0.088341258466243744, 0.073040992021560669, 2.687875509262085, -0.10394033789634705, 0.3775407075881958, 0.51536381244659424, 3.1495780944824219, 0.053289592266082764, 0.17120230197906494, 0.093556001782417297, 1.2776833772659302, -0.25550782680511475, 3.8700013160705566, -0.2890658974647522, 1.076183557510376, 1.5791144371032715, 0.15103635191917419, 0.45250660181045532, -1.9951999187469482, 1.4478108882904053, 0.10831913352012634, 0.23423272371292114, 1.2963103055953979, 0.049349680542945862, 0.64256918430328369, -2.1088485717773438, 0.79887902736663818, 0.35940301418304443, 0.59853929281234741, -0.26791280508041382, 0.40669971704483032, -0.65792179107666016, 0.56978392601013184, -0.53658998012542725, 1.2752459049224854, 0.26433265209197998, -0.3389817476272583, 0.44777786731719971, 0.24461197853088379, 0.18168449401855469, 0.54747468233108521, 0.14068704843521118, 0.065820418298244476, };
const TfArray<1, int> tensor_dimension7 = { 1, { 48 } };
const ALIGN(16) float tensor_data8[48] = { 0.6284218430519104, 0.76364988088607788, 0.8962591290473938, 0.35023579001426697, 0.54226195812225342, -0.45382222533226013, 0.75793987512588501, 0.93755316734313965, 0.61559152603149414, -0.17467573285102844, 0.8983616828918457, -0.49503794312477112, 0.9320608377456665, -0.42617225646972656, 0.40524992346763611, 1.0547378063201904, -0.13382399082183838, 0.4946092963218689, 0.13446730375289917, 0.60863488912582397, 0.71939671039581299, 0.65805155038833618, 0.12854550778865814, 1.0032317638397217, 0.86975687742233276, 0.63926655054092407, 0.95149582624435425, 0.40608996152877808, 0.80925512313842773, 0.73113930225372314, 0.31115689873695374, 0.46542251110076904, 0.22552351653575897, 0.38526204228401184, -0.05762111023068428, 0.080660656094551086, -0.51793265342712402, -0.16342617571353912, 0.58954387903213501, 0.56893140077590942, 0.81040221452713013, 0.54024899005889893, 0.72609537839889526, 0.86406993865966797, 0.78236889839172363, 0.75444728136062622, 0.69061446189880371, 0.85743951797485352, };
const TfArray<1, int> tensor_dimension8 = { 1, { 48 } };
const ALIGN(16) float tensor_data9[48] = { 0.18806761503219604, 1.0854570865631104, -0.74471557140350342, -0.019050642848014832, 0.32092088460922241, -0.20060811936855316, 0.6602209210395813, 0.66083145141601562, -0.33385190367698669, -0.05131952092051506, -1.4242870807647705, -0.4023127555847168, -1.0905628204345703, -0.49752897024154663, -0.99051225185394287, 3.028139591217041, 1.1690890789031982, 0.16295886039733887, -0.13514555990695953, -1.1604857444763184, -1.4555442333221436, -0.33658477663993835, 1.4206568002700806, -2.2865798473358154, 0.047498002648353577, -0.84791910648345947, 1.775702953338623, -1.2513006925582886, -0.23893001675605774, -0.53046822547912598, -1.0866305828094482, 1.1525399684906006, 0.7519192099571228, 0.0428294837474823, 0.66449713706970215, 0.066877901554107666, -0.10672681033611298, -0.5012052059173584, 1.5549318790435791, -0.57728004455566406, 1.2711046934127808, -0.13252663612365723, 0.95562517642974854, 0.98522192239761353, 0.36177361011505127, 0.90387952327728271, 0.075474560260772705, -0.7265745997428894, };
const TfArray<1, int> tensor_dimension9 = { 1, { 48 } };
const ALIGN(16) float tensor_data10[48] = { 0.41591548919677734, -0.41629871726036072, 0.24399204552173615, -0.36212041974067688, 0.76011210680007935, -0.19182363152503967, 0.69678479433059692, -0.53602129220962524, 0.25216555595397949, 0.21684293448925018, 0.47659334540367126, 0.67864894866943359, 0.10347367823123932, -0.13180890679359436, 0.24976396560668945, 0.73119193315505981, -0.40434625744819641, 0.75366079807281494, 0.80943262577056885, 0.26399216055870056, -0.17961496114730835, 0.60279625654220581, -0.09900270402431488, 0.89891785383224487, 0.41625559329986572, 0.36228859424591064, 0.37820243835449219, -0.20691362023353577, 0.93946844339370728, -0.079152375459671021, 0.49841180443763733, -0.29701584577560425, -0.11317846179008484, 0.83799737691879272, -0.23221005499362946, 0.53796470165252686, 0.36269345879554749, 0.31542274355888367, 0.066743537783622742, 0.84683257341384888, 0.51207482814788818, 0.94546902179718018, -0.62381303310394287, 0.45444998145103455, 0.80917340517044067, -0.0035276804119348526, 0.56489032506942749, 0.70468610525131226, };
const TfArray<1, int> tensor_dimension10 = { 1, { 48 } };
const ALIGN(16) float tensor_data11[48] = { 0.97489196062088013, 0.068133443593978882, 1.387861967086792, 0.03448176383972168, 1.7694219350814819, -0.17177462577819824, 1.6598086357116699, 0.094601333141326904, 0.45212376117706299, 2.0167009830474854, 0.39075386524200439, 2.1100404262542725, 0.12989926338195801, 1.2616995573043823, 1.6853314638137817, 1.5135387182235718, 0.16618204116821289, 0.30133497714996338, 0.047453824430704117, 2.1160571575164795, 0.053535968065261841, 1.3213016986846924, -0.10258352756500244, 1.8928378820419312, 0.98456048965454102, 2.151597261428833, -0.14990001916885376, -0.13806326687335968, 0.54227876663208008, 1.5456857681274414, 1.2242484092712402, -0.022214055061340332, 0.21664303541183472, 0.6576884388923645, 0.19938325881958008, 1.2650859355926514, 0.67496001720428467, 1.5844144821166992, 0.37662631273269653, 2.3544929027557373, 1.363971471786499, 0.45807749032974243, 0.43918442726135254, 1.0407783985137939, 0.12869741022586823, 0.23202913999557495, 1.6879358291625977, 1.3993501663208008, };
const TfArray<1, int> tensor_dimension11 = { 1, { 48 } };
const ALIGN(16) float tensor_data12[96] = { 0.30913850665092468, 0.79068070650100708, 0.13021239638328552, 0.43597900867462158, 0.63370180130004883, 0.96528828144073486, 0.034267805516719818, 0.28022682666778564, 0.81169015169143677, -0.26052412390708923, 0.89717012643814087, 0.42389997839927673, 0.30950197577476501, 0.18299439549446106, 0.52571427822113037, 0.10984098166227341, 0.62666559219360352, 0.64418065547943115, 0.03256317600607872, 0.92124873399734497, 0.29637050628662109, 0.75871706008911133, -0.23858432471752167, 0.31580859422683716, -0.75146287679672241, 0.21945285797119141, 0.38306167721748352, 0.38278877735137939, 0.84764373302459717, 0.2147258073091507, 0.56369858980178833, 0.52604591846466064, 0.38316419720649719, 0.80034041404724121, 0.56277137994766235, 0.66254705190658569, 0.67038947343826294, 0.43930459022521973, 0.45444294810295105, 0.41479197144508362, 0.9044528603553772, 0.31382393836975098, 0.46166834235191345, 0.17500412464141846, 0.40922388434410095, 0.76912927627563477, 0.77698320150375366, 0.80863648653030396, 0.23075571656227112, -0.14012199640274048, 0.36667460203170776, 0.75633907318115234, 0.51277095079421997, -0.39689850807189941, 0.72774195671081543, 0.015405588783323765, 0.35961726307868958, 0.82339125871658325, 0.16045364737510681, 0.30292236804962158, 0.49083316326141357, 0.83930772542953491, 0.67445069551467896, -0.097396090626716614, 0.94903242588043213, 0.86569225788116455, 0.41588884592056274, 0.52380514144897461, 0.73552554845809937, 0.51244425773620605, 0.58242607116699219, 0.26368418335914612, -0.56186085939407349, 0.68610191345214844, 0.29044234752655029, 0.65381622314453125, 0.10240846872329712, 0.76157134771347046, 0.51183724403381348, 0.77939927577972412, 0.43006005883216858, 0.13862578570842743, 0.49052280187606812, 0.94186985492706299, 0.0089827580377459526, 0.66545277833938599, 0.65381979942321777, 0.45790621638298035, -0.18363673985004425, 0.59148609638214111, 0.22752314805984497, 0.79383999109268188, 0.56969684362411499, 0.47099083662033081, 0.51739603281021118, 0.69676518440246582, };
const TfArray<1, int> tensor_dimension12 = { 1, { 96 } };
const ALIGN(16) float tensor_data13[96] = { 0.90871596336364746, 0.41256815195083618, -0.80530029535293579, 1.3504153490066528, 0.61566412448883057, -1.2107625007629395, 0.26051798462867737, -0.3570934534072876, 0.040890395641326904, -0.69954550266265869, 0.29271438717842102, -0.56480491161346436, 0.77876794338226318, -0.35210013389587402, -0.15638019144535065, -1.2168210744857788, 0.034586697816848755, 0.49638104438781738, -1.2652673721313477, 0.12414049357175827, -0.72837108373641968, -0.43597286939620972, -0.63661861419677734, -0.41538870334625244, 0.16179771721363068, 1.3618749380111694, -1.7669987678527832, -0.85707539319992065, -0.44295006990432739, -0.43274208903312683, 0.10464798659086227, -0.068023562431335449, 1.1975762844085693, -0.13467448949813843, -0.22462844848632812, 0.20802316069602966, 0.47779315710067749, 1.1305243968963623, 0.042805574834346771, 0.98984044790267944, -0.586597740650177, 1.1730382442474365, 0.54012423753738403, 1.0997602939605713, 0.30951753258705139, -1.0203679800033569, 1.7440773248672485, 0.42419421672821045, -0.94299924373626709, 0.040725540369749069, -0.94300371408462524, 0.017484113574028015, 0.3809083104133606, -0.85716867446899414, 0.83813661336898804, 0.42222529649734497, 0.54133820533752441, 1.8330249786376953, -0.49442780017852783, -0.26855957508087158, 0.36978211998939514, -0.1299901008605957, -0.080122344195842743, 0.89940536022186279, 2.5395474433898926, 0.56135690212249756, 1.6803338527679443, 1.2593011856079102, -0.74998080730438232, -0.42813307046890259, 1.5174298286437988, 0.15694664418697357, -0.22518745064735413, -0.21475112438201904, -0.564339280128479, 0.23849648237228394, 1.2423341274261475, 1.1652343273162842, 1.4432077407836914, 2.004664421081543, 1.0226390361785889, -0.61157679557800293, 0.82372951507568359, 2.9776921272277832, -0.037112236022949219, -1.0242317914962769, 1.2303388118743896, -1.5961992740631104, 1.0317212343215942, -0.0033971965312957764, -0.82881587743759155, 0.10737134516239166, 0.25357657670974731, -0.10332257300615311, 1.6826835870742798, -0.12426194548606873, };
const TfArray<1, int> tensor_dimension13 = { 1, { 96 } };
const ALIGN(16) float tensor_data14[96] = { 0.73602396249771118, 0.34746670722961426, 0.10868310183286667, -0.15056878328323364, 0.65787678956985474, 0.87466299533843994, 0.76567625999450684, 0.21349702775478363, -0.041118931025266647, 0.83097583055496216, 0.14275786280632019, -0.40348577499389648, 0.58834195137023926, 0.42756736278533936, 0.093445748090744019, -0.11661041527986526, 0.52995890378952026, 0.68821758031845093, -0.034596133977174759, 0.027162462472915649, 0.52217084169387817, 0.86216789484024048, 0.84408414363861084, -0.33976030349731445, -0.47894909977912903, -0.1454276442527771, 0.94993090629577637, 0.0074857296422123909, 0.27835056185722351, 0.071630023419857025, 0.81752854585647583, -0.32299238443374634, 0.79244112968444824, 0.52297878265380859, 0.68851494789123535, -0.70635443925857544, 0.18976449966430664, -0.65997767448425293, 0.083678632974624634, 0.22851654887199402, 0.49162936210632324, 0.36408242583274841, 0.32242453098297119, -0.068513005971908569, 0.3083026111125946, 0.45823067426681519, 0.57831770181655884, 0.62531942129135132, 0.54781138896942139, 0.54597228765487671, 0.7270660400390625, 0.36012053489685059, -0.29625692963600159, 0.2792394757270813, 0.21092276275157928, 0.35021123290061951, 0.40420079231262207, 0.47520846128463745, 0.88190966844558716, 0.20997112989425659, -0.16516578197479248, 0.73929053544998169, 0.62363719940185547, 0.55060827732086182, 0.69251859188079834, 0.7367209792137146, -0.6917726993560791, 0.41832277178764343, 0.57783323526382446, -0.14920495450496674, 0.67568188905715942, 0.22929371893405914, 0.46289640665054321, 0.39389297366142273, 0.54257833957672119, 0.32126739621162415, -0.10839225351810455, 0.39985576272010803, 0.44054454565048218, 0.50804173946380615, 0.47479912638664246, 0.38178470730781555, 0.77203011512756348, 0.13084661960601807, 0.35252648591995239, 0.66493839025497437, 0.17223095893859863, -0.2233244925737381, 0.98870319128036499, -0.0020802980288863182, 0.18051493167877197, -0.20600779354572296, 0.85473603010177612, 0.40715572237968445, -0.06324024498462677, -0.052157316356897354, };
const TfArray<1, int> tensor_dimension14 = { 1, { 96 } };
const ALIGN(16) float tensor_data15[96] = { -0.98644721508026123, -0.15474823117256165, -0.33442261815071106, -0.72430622577667236, -0.2982490062713623, 1.5951873064041138, -0.52209419012069702, -0.1145082414150238, -0.1303989589214325, 0.22872915863990784, 1.0100021362304688, -0.64842915534973145, 0.29917269945144653, 1.0745368003845215, 1.1754924058914185, -0.51268017292022705, 1.2486674785614014, 0.74798482656478882, -0.75770902633666992, 0.050806164741516113, -0.77277195453643799, -0.92039799690246582, 0.34538215398788452, -0.48033717274665833, 0.51334643363952637, -0.68398535251617432, -0.23397725820541382, -0.44009220600128174, 0.29272758960723877, -0.60462361574172974, 0.25821125507354736, -0.28110358119010925, 1.6755079030990601, 0.10557138174772263, -0.034953620284795761, 0.10283470153808594, 0.48269000649452209, -0.50351369380950928, -0.44927582144737244, 0.45526993274688721, 0.21508225798606873, 0.85162472724914551, 0.23543404042720795, -0.65906029939651489, 1.088083028793335, 1.3993209600448608, -0.64442276954650879, 1.3049979209899902, -0.18642614781856537, 1.0983090400695801, 1.5121490955352783, -0.27526980638504028, -0.20569545030593872, -0.3619040846824646, 0.24943825602531433, 1.5995702743530273, 0.63099807500839233, 0.66238284111022949, 2.424896240234375, 0.68602144718170166, 1.2599496841430664, 2.0788266658782959, 0.56614887714385986, -0.77242743968963623, 0.65067702531814575, -0.50210213661193848, -0.63263130187988281, 0.95290642976760864, -0.60418105125427246, -0.38182687759399414, -0.32950133085250854, 0.3106805682182312, 1.5477221012115479, -0.4636707603931427, -0.23391327261924744, 1.0192761421203613, -0.1189483106136322, 0.24405685067176819, 1.58077073097229, -0.58201968669891357, -0.084093987941741943, 1.5072363615036011, -0.15422403812408447, 0.34616661071777344, 1.1669639348983765, -0.16586221754550934, -0.50909394025802612, -0.52223461866378784, 1.2245233058929443, -0.9850272536277771, 1.1343787908554077, 0.021851480007171631, 0.52101069688796997, 0.50508815050125122, -0.47967666387557983, -1.0187603235244751, };
const TfArray<1, int> tensor_dimension15 = { 1, { 96 } };
const ALIGN(16) float tensor_data16[96] = { 0.12114860862493515, -0.025859730318188667, 0.56830662488937378, 0.75196784734725952, 0.60119426250457764, -0.41503569483757019, 0.55797660350799561, -0.25530481338500977, -0.40788960456848145, -0.11612283438444138, 0.62611830234527588, -0.42989888787269592, 0.54501593112945557, 0.55786055326461792, 0.27896717190742493, 0.41678494215011597, -0.21041062474250793, -0.10749509930610657, -0.29729491472244263, 0.61108052730560303, 0.40925568342208862, -0.12401241809129715, 0.29608199000358582, -0.14474447071552277, -0.14611928164958954, 0.5614544153213501, 0.32165786623954773, 0.33955225348472595, 0.69477123022079468, 0.41053250432014465, 0.4977143406867981, 0.19424307346343994, 0.27157804369926453, 0.60287940502166748, 0.58091568946838379, 0.4156186580657959, -0.047425471246242523, 0.43198719620704651, 0.46445322036743164, -0.52855122089385986, -0.12692168354988098, 0.14051169157028198, -0.047544326633214951, 0.27264320850372314, -0.23490346968173981, 0.056188777089118958, -0.25541788339614868, 0.11996087431907654, -0.6736372709274292, 0.2362915426492691, 0.25659391283988953, -0.45709609985351562, 0.75489264726638794, -0.15436109900474548, 0.32011976838111877, 0.19393183290958405, 0.16558042168617249, 0.37538248300552368, -0.19694748520851135, -0.36326074600219727, 0.032376870512962341, 0.23467402160167694, 0.063816934823989868, 0.61435294151306152, 0.65224486589431763, 0.45051121711730957, 0.40630027651786804, 0.71019679307937622, 0.64928323030471802, -0.1599850207567215, 0.41963621973991394, 0.64596480131149292, 0.45055729150772095, -0.27278828620910645, 0.69083178043365479, 0.79076719284057617, 0.071839645504951477, -0.65857023000717163, 0.074454702436923981, 0.22067083418369293, 0.91696953773498535, 0.2256845086812973, -0.12072869390249252, -0.4470573365688324, 0.18856069445610046, 0.10689737647771835, 0.21757595241069794, -0.36991244554519653, 0.68216079473495483, -0.14238154888153076, 0.54874628782272339, 0.18952673673629761, 0.01844029501080513, -0.46679967641830444, -0.12164148688316345, 0.23533786833286285, };
const TfArray<1, int> tensor_dimension16 = { 1, { 96 } };
const ALIGN(16) float tensor_data17[16*3*3*1] = { 
  /* [0][0][][] */ -3.857363224029541, -5.0900206565856934, -1.4211641550064087, 
  /* [0][1][][] */ 3.2049300670623779, -1.7201875448226929, 0.72054183483123779, 
  /* [0][2][][] */ 1.5854214429855347, 5.9014172554016113, 0.81861263513565063, 
  /* [1][0][][] */ 9.1503705978393555, -8.7665538787841797, -1.2433117628097534, 
  /* [1][1][][] */ -11.644710540771484, 9.0090789794921875, 1.7695233821868896, 
  /* [1][2][][] */ 0.97091168165206909, -0.43150109052658081, -1.4820824861526489, 
  /* [2][0][][] */ -1.0424042940139771, -0.17375998198986053, -2.0667378902435303, 
  /* [2][1][][] */ 1.4320639371871948, 3.8948843479156494, 5.2286438941955566, 
  /* [2][2][][] */ -0.5646701455116272, -3.9977025985717773, -3.3668632507324219, 
  /* [3][0][][] */ 4.1224737167358398, 4.3230166435241699, 2.0074772834777832, 
  /* [3][1][][] */ 0.039912112057209015, -0.7490772008895874, -0.49435701966285706, 
  /* [3][2][][] */ -3.4987661838531494, -4.3768367767333984, -1.499253511428833, 
  /* [4][0][][] */ 0.089176014065742493, -0.38882696628570557, -0.069845765829086304, 
  /* [4][1][][] */ 0.10337212681770325, -0.63641530275344849, -0.046647634357213974, 
  /* [4][2][][] */ 0.063431896269321442, -0.35362535715103149, -0.13246928155422211, 
  /* [5][0][][] */ -0.34325885772705078, 0.21150833368301392, -0.011935712769627571, 
  /* [5][1][][] */ -0.71009725332260132, 0.21895372867584229, 0.0071951928548514843, 
  /* [5][2][][] */ -0.48147639632225037, 0.17098657786846161, -0.017345895990729332, 
  /* [6][0][][] */ -0.58340036869049072, 2.3034250736236572, 3.7686405181884766, 
  /* [6][1][][] */ -1.5896623134613037, 1.5892758369445801, -0.52892798185348511, 
  /* [6][2][][] */ -1.1339931488037109, -1.6207426786422729, -2.7150654792785645, 
  /* [7][0][][] */ 0.19061903655529022, 0.066285043954849243, -0.1915820837020874, 
  /* [7][1][][] */ 0.64112931489944458, 0.2967374324798584, -0.10413100570440292, 
  /* [7][2][][] */ 0.1959194540977478, 0.10351012647151947, -0.02222551591694355, 
  /* [8][0][][] */ -0.93872553110122681, -1.3367210626602173, 2.0764684677124023, 
  /* [8][1][][] */ -2.2959039211273193, -3.658597469329834, 5.1524772644042969, 
  /* [8][2][][] */ -1.1540982723236084, -2.5999922752380371, 3.8787567615509033, 
  /* [9][0][][] */ -0.25106227397918701, 0.48624786734580994, -0.1551673412322998, 
  /* [9][1][][] */ -0.20003364980220795, 1.1463572978973389, -0.17750093340873718, 
  /* [9][2][][] */ -0.13719925284385681, 0.72755599021911621, -0.1135728731751442, 
  /* [10][0][][] */ 1.612668514251709, 5.9417943954467773, 0.68764960765838623, 
  /* [10][1][][] */ -2.6562507152557373, -8.956385612487793, -2.1801612377166748, 
  /* [10][2][][] */ 0.71725469827651978, 2.6413941383361816, 1.0858542919158936, 
  /* [11][0][][] */ 0.37752577662467957, -1.6769928932189941, 0.5407528281211853, 
  /* [11][1][][] */ 4.9484872817993164, -7.601433277130127, 2.5444755554199219, 
  /* [11][2][][] */ -6.9027218818664551, 9.8656435012817383, -3.8932561874389648, 
  /* [12][0][][] */ -2.2749423980712891, 2.789027214050293, -0.5332796573638916, 
  /* [12][1][][] */ -7.1297435760498047, 6.4624137878417969, 0.34278646111488342, 
  /* [12][2][][] */ -4.3935418128967285, 4.4756336212158203, 0.29701802134513855, 
  /* [13][0][][] */ 0.29306617379188538, 0.15666767954826355, 0.027498694136738777, 
  /* [13][1][][] */ 0.43066298961639404, 0.36569544672966003, 0.00029355194419622421, 
  /* [13][2][][] */ 0.30911940336227417, 0.456216961145401, 0.19698701798915863, 
  /* [14][0][][] */ -2.3564267158508301, -2.1839098930358887, 3.292635440826416, 
  /* [14][1][][] */ 3.0902061462402344, 7.016014575958252, -9.4244565963745117, 
  /* [14][2][][] */ -1.2961270809173584, -5.2354335784912109, 5.7273921966552734, 
  /* [15][0][][] */ -0.55191713571548462, -0.2931746244430542, 0.11772791296243668, 
  /* [15][1][][] */ -0.93951678276062012, -0.93245625495910645, 0.015922458842396736, 
  /* [15][2][][] */ -0.06047193706035614, -0.32826918363571167, -0.089822687208652496, 
};
const TfArray<4, int> tensor_dimension17 = { 4, { 16,3,3,1 } };
const ALIGN(16) float tensor_data18[8*1*1*16] = { 
  /* [0][0][][] */ -0.048538085073232651,-0.12647201120853424,-0.12846706807613373,-0.465160071849823,-0.23280201852321625,-0.33873510360717773,0.14974713325500488,-0.14321760833263397,0.27638298273086548,0.047390356659889221,-0.22686885297298431,-0.036636520177125931,0.93256890773773193,1.0228555202484131,-0.16375111043453217,-0.86497855186462402, 
  /* [1][0][][] */ 1.0456128120422363,-0.46282395720481873,-0.29340308904647827,0.17260046303272247,-0.29160663485527039,0.50955420732498169,-0.59355682134628296,-0.3365837037563324,-0.30983686447143555,0.61707228422164917,-0.23704545199871063,-0.41329848766326904,-0.076850339770317078,0.081203795969486237,-0.51296311616897583,-0.1328127533197403, 
  /* [2][0][][] */ -0.24564658105373383,-0.82934510707855225,0.44781962037086487,0.40595543384552002,0.44146078824996948,-0.39427453279495239,-0.66446381807327271,-0.2481105774641037,0.26167148351669312,-0.64860630035400391,0.17383715510368347,-1.1317741870880127,0.39166927337646484,-0.15078294277191162,-0.62984395027160645,0.16999875009059906, 
  /* [3][0][][] */ 0.25161221623420715,0.15020181238651276,0.14572227001190186,0.099585674703121185,-0.10045456141233444,0.66035628318786621,-0.39636918902397156,-0.15892194211483002,1.1626067161560059,0.41073912382125854,0.1272599995136261,0.24620234966278076,-0.0051968088373541832,-0.17474080622196198,0.12280966341495514,0.16053453087806702, 
  /* [4][0][][] */ -0.57401657104492188,-0.2814977765083313,-0.22727200388908386,-0.7868075966835022,-0.016065273433923721,0.25278648734092712,0.33372607827186584,-0.78370851278305054,0.23914782702922821,-0.14359854161739349,-0.40247151255607605,-0.2876935601234436,-0.73807209730148315,0.23761948943138123,-0.28537118434906006,-0.16657304763793945, 
  /* [5][0][][] */ 0.68145269155502319,0.30285307765007019,0.49988827109336853,-0.18652267754077911,0.35309311747550964,-0.39197590947151184,-0.91560631990432739,-0.92887455224990845,-0.18057113885879517,-0.60278171300888062,0.41859099268913269,0.28967583179473877,-0.3969915509223938,0.30402469635009766,0.4301413893699646,-0.31859272718429565, 
  /* [6][0][][] */ 0.70925021171569824,0.29238632321357727,-0.74951350688934326,-0.46293789148330688,0.23774330317974091,-0.43155708909034729,-0.03174760565161705,-0.61832016706466675,-0.26076400279998779,0.15833663940429688,-0.8520851731300354,0.63556391000747681,0.60742872953414917,-0.55993616580963135,0.080659672617912292,0.51780354976654053, 
  /* [7][0][][] */ -1.6540385484695435,0.052829992026090622,1.1493849754333496,-0.3815024197101593,-0.77385377883911133,0.043383091688156128,-0.019571654498577118,-0.72242504358291626,-0.6082921028137207,0.70226109027862549,1.0335209369659424,-0.30620881915092468,0.73871952295303345,-0.24409422278404236,0.28627881407737732,0.31533247232437134, 
};
const TfArray<4, int> tensor_dimension18 = { 4, { 8,1,1,16 } };
const ALIGN(16) float tensor_data19[48*1*1*8] = { 
  /* [0][0][][] */ -0.13990749418735504,0.17136326432228088,-0.083048708736896515,-0.072766035795211792,-0.33528614044189453,-0.23217201232910156,-0.59819763898849487,0.11588815599679947, 
  /* [1][0][][] */ 0.38631552457809448,-0.34081777930259705,-0.20498166978359222,-0.19946590065956116,0.58853721618652344,-0.33127650618553162,0.41098394989967346,0.078190669417381287, 
  /* [2][0][][] */ -0.3229687511920929,0.42010080814361572,-0.16386322677135468,-0.43925365805625916,0.18582817912101746,-0.015518197789788246,-0.1282820850610733,0.11328528076410294, 
  /* [3][0][][] */ 0.11673405766487122,0.03750084713101387,0.23490698635578156,0.05974360927939415,0.25987255573272705,0.36940976977348328,0.41943278908729553,-0.055841639637947083, 
  /* [4][0][][] */ -0.064599104225635529,-0.14013835787773132,0.0677933469414711,0.0054058264940977097,-0.054799437522888184,-0.15747952461242676,0.0083725713193416595,-0.014684982597827911, 
  /* [5][0][][] */ 0.45227694511413574,-0.10812032967805862,0.27504011988639832,0.19856074452400208,-0.22642338275909424,-0.0036228196695446968,0.0338091179728508,-0.12956982851028442, 
  /* [6][0][][] */ 0.1200772225856781,0.1633664071559906,0.48405677080154419,-0.095154516398906708,0.22079993784427643,-0.11528681963682175,-0.18532553315162659,0.1324915736913681, 
  /* [7][0][][] */ 0.047056175768375397,0.0037516721058636904,-0.27453762292861938,-0.056584138423204422,-0.090587615966796875,0.18026356399059296,0.18779905140399933,-0.14922712743282318, 
  /* [8][0][][] */ -0.10653359442949295,0.41232633590698242,-0.115967757999897,0.0093220369890332222,0.17776381969451904,0.39662274718284607,0.16965320706367493,0.1645486056804657, 
  /* [9][0][][] */ 0.072519972920417786,0.77115893363952637,-0.18993236124515533,0.39361152052879333,-0.022840835154056549,-0.62593615055084229,0.14266452193260193,0.49182313680648804, 
  /* [10][0][][] */ 0.02431880310177803,-0.52398139238357544,-0.084212608635425568,-0.139402836561203,-0.2460072934627533,-0.44971182942390442,-0.23643955588340759,-0.2625945508480072, 
  /* [11][0][][] */ -0.40296259522438049,-0.23592962324619293,0.27856114506721497,0.16171957552433014,-0.012570330873131752,-0.18671621382236481,0.2680605947971344,0.20595420897006989, 
  /* [12][0][][] */ -0.058319762349128723,0.085198394954204559,-0.31543636322021484,0.16356667876243591,0.062195789068937302,-0.12838028371334076,-0.20215028524398804,0.25975659489631653, 
  /* [13][0][][] */ 0.4365408718585968,-0.51402026414871216,0.37983378767967224,0.30494508147239685,0.027694117277860641,0.11765529960393906,0.13645645976066589,-0.26993897557258606, 
  /* [14][0][][] */ -0.15842010080814362,0.30869457125663757,-0.035133082419633865,-0.42345640063285828,-0.12712518870830536,-0.32781431078910828,-0.20694035291671753,-0.30133339762687683, 
  /* [15][0][][] */ 0.19033840298652649,0.4506431519985199,0.10744655132293701,-0.018012398853898048,0.10326086729764938,-0.2939620316028595,0.33003297448158264,-0.45406201481819153, 
  /* [16][0][][] */ -0.2482144683599472,-0.18956480920314789,-0.17889927327632904,0.14665058255195618,-0.11808998137712479,0.0024665775708854198,-0.11238649487495422,0.15347938239574432, 
  /* [17][0][][] */ -0.016586311161518097,-0.10775100439786911,-0.11467815190553665,0.076534166932106018,-0.042815733700990677,0.085932075977325439,-0.053473606705665588,0.060485482215881348, 
  /* [18][0][][] */ -0.21320122480392456,-0.19504635035991669,-0.16548372805118561,0.2644137442111969,-0.0040625645779073238,0.17742165923118591,0.06472952663898468,0.29930752515792847, 
  /* [19][0][][] */ 0.31405487656593323,-0.51508891582489014,0.41040027141571045,-0.48459997773170471,0.0098913237452507019,-0.24623970687389374,0.11718558520078659,-0.17861567437648773, 
  /* [20][0][][] */ 0.038937587291002274,0.2890925407409668,0.12601578235626221,0.079318255186080933,0.17217919230461121,0.5941041111946106,0.26500341296195984,0.006422821432352066, 
  /* [21][0][][] */ 0.067888073623180389,0.23845693469047546,0.085895530879497528,-0.061361029744148254,0.088448017835617065,-0.12165787816047668,0.18359072506427765,-0.2649247944355011, 
  /* [22][0][][] */ 0.076107911765575409,0.025935040786862373,0.5141637921333313,0.12012476474046707,-0.081032872200012207,0.57201564311981201,0.19108839333057404,-0.18726959824562073, 
  /* [23][0][][] */ -0.21230512857437134,-0.15524335205554962,0.11322082579135895,-0.12333177030086517,0.23018641769886017,0.19807523488998413,-0.17943967878818512,-0.33137810230255127, 
  /* [24][0][][] */ -0.39343613386154175,-0.33362972736358643,0.20797055959701538,-0.41042163968086243,0.45563429594039917,0.39667826890945435,-0.2504427433013916,-0.45313584804534912, 
  /* [25][0][][] */ 1.2324190139770508,0.064503669738769531,-0.53544771671295166,-0.16770544648170471,0.096190944314002991,0.29834288358688354,-0.53235173225402832,-0.0048014447093009949, 
  /* [26][0][][] */ -0.38212868571281433,-0.10415329784154892,-0.36709895730018616,-0.056501112878322601,-0.12797051668167114,-0.077037647366523743,0.082637257874011993,-0.0082270298153162003, 
  /* [27][0][][] */ 0.50310897827148438,0.19863273203372955,-0.0080043142661452293,-0.47571456432342529,-0.97165042161941528,-0.17352470755577087,0.56749087572097778,0.75814169645309448, 
  /* [28][0][][] */ -0.36317670345306396,-0.21337352693080902,-0.029839543625712395,0.11106313019990921,-0.21080613136291504,-0.2852986752986908,0.079225420951843262,0.00052471214439719915, 
  /* [29][0][][] */ 0.043464161455631256,0.052331872284412384,0.026261378079652786,-0.062543965876102448,0.0078438036143779755,0.0018896833062171936,-0.038877140730619431,-0.03860202431678772, 
  /* [30][0][][] */ -0.20736131072044373,-0.15073312819004059,0.1411593109369278,-0.21969446539878845,0.22356262803077698,0.2052491158246994,-0.1059366837143898,-0.28807824850082397, 
  /* [31][0][][] */ 0.32104849815368652,0.29065364599227905,-0.080524645745754242,0.94639647006988525,0.015067226253449917,-0.52944928407669067,0.050749827176332474,0.11710038781166077, 
  /* [32][0][][] */ -0.14597760140895844,0.63919699192047119,-0.058627139776945114,0.21525561809539795,0.06034550815820694,0.4223247766494751,-0.13166476786136627,0.27467536926269531, 
  /* [33][0][][] */ -0.13704708218574524,0.57858079671859741,-0.28277185559272766,0.088681846857070923,0.15766750276088715,-0.19972565770149231,-0.17827130854129791,-0.040582519024610519, 
  /* [34][0][][] */ -0.31219223141670227,-0.27435564994812012,-0.15060801804065704,0.29387065768241882,0.035891368985176086,-0.019981635734438896,0.010057158768177032,0.29554763436317444, 
  /* [35][0][][] */ -0.16615340113639832,0.50669771432876587,-0.078804105520248413,-0.039835728704929352,0.30266791582107544,0.40757596492767334,0.19219881296157837,0.21673431992530823, 
  /* [36][0][][] */ 0.24326044321060181,0.1043982207775116,0.023796556517481804,-0.15696510672569275,-0.34122651815414429,-0.061493486166000366,0.27177730202674866,0.38098016381263733, 
  /* [37][0][][] */ -0.29703381657600403,0.56888997554779053,0.16715510189533234,0.13927711546421051,-0.71984761953353882,0.62284892797470093,-0.11891280114650726,-0.48598089814186096, 
  /* [38][0][][] */ 0.18299281597137451,0.18210931122303009,0.17484976351261139,0.064328916370868683,0.47303256392478943,0.2300771176815033,0.45009079575538635,0.14660167694091797, 
  /* [39][0][][] */ -0.080922834575176239,-0.45184370875358582,0.2650681734085083,-0.091390758752822876,0.11751645803451538,0.24951890110969543,-0.54177141189575195,0.79418867826461792, 
  /* [40][0][][] */ -0.28158250451087952,-0.13877208530902863,-0.22177897393703461,0.39019054174423218,-0.082666762173175812,0.021069701761007309,-0.030525408685207367,0.26721125841140747, 
  /* [41][0][][] */ 0.54478025436401367,0.11523731797933578,0.24721717834472656,0.39997017383575439,-0.13411156833171844,-0.059323534369468689,-0.038367565721273422,-0.041549038141965866, 
  /* [42][0][][] */ -0.12865622341632843,0.045006025582551956,-0.25337690114974976,-0.39900180697441101,0.15114963054656982,-0.37395751476287842,0.044454794377088547,0.31317302584648132, 
  /* [43][0][][] */ 0.095511399209499359,-0.019192907959222794,0.40664952993392944,-0.045539557933807373,0.16298919916152954,0.5561826229095459,0.37881371378898621,0.056219525635242462, 
  /* [44][0][][] */ -0.1464807391166687,-0.12012861669063568,-0.24578021466732025,0.47259625792503357,0.18070903420448303,0.049215853214263916,-0.18626320362091064,-0.1178404837846756, 
  /* [45][0][][] */ 0.10265959799289703,0.27432435750961304,0.30788013339042664,-0.21452178061008453,0.057195860892534256,-0.11765522509813309,0.051996055990457535,-0.29635807871818542, 
  /* [46][0][][] */ -0.069363966584205627,-0.35578379034996033,-0.11230762302875519,0.11378185451030731,-0.014298205263912678,0.11871202290058136,-0.16297319531440735,0.33756044507026672, 
  /* [47][0][][] */ 0.026742864400148392,0.07309742271900177,0.42625445127487183,0.045880045741796494,0.2496103048324585,0.44974899291992188,0.46293523907661438,-0.14702583849430084, 
};
const TfArray<4, int> tensor_dimension19 = { 4, { 48,1,1,8 } };
const ALIGN(16) float tensor_data20[8*1*1*48] = { 
  /* [0][0][][] */ -0.39766392111778259,-0.041671108454465866,0.26463404297828674,0.064348451793193817,-0.3017430305480957,-0.10069648921489716,0.049462173134088516,0.027658544480800629,-0.32076990604400635,-0.0096710724756121635,-0.5515519380569458,-0.5425180196762085,-0.17235314846038818,-0.55059367418289185,-0.038637388497591019,-0.29132643342018127,0.41255021095275879,-0.37916132807731628,0.43002715706825256,0.33487430214881897,-0.11356136947870255,0.3386918306350708,-0.33856067061424255,0.13871034979820251,-0.063311897218227386,-0.30065467953681946,0.52360981702804565,-0.17173479497432709,-0.074265316128730774,-0.21061037480831146,0.19094032049179077,0.063600189983844757,0.70641005039215088,0.31434807181358337,0.3716525137424469,-1.0670146942138672,0.17158833146095276,0.039884861558675766,-0.13291175663471222,-0.31856861710548401,-0.01460642646998167,-0.093987971544265747,0.44366401433944702,0.48067799210548401,0.35871225595474243,0.07774769514799118,0.27852368354797363,0.02982124499976635, 
  /* [1][0][][] */ 0.051678184419870377,0.19084711372852325,0.30781915783882141,-0.11939603090286255,-0.079613134264945984,0.20109206438064575,-0.19259010255336761,-0.097551606595516205,-0.011443880386650562,0.096911825239658356,-0.071621507406234741,-0.41024771332740784,0.085579529404640198,0.3944491446018219,-0.054314900189638138,0.28526148200035095,-0.057038955390453339,0.046211209148168564,-0.11381500959396362,-0.28265243768692017,0.082746982574462891,-0.39044749736785889,-0.15878097712993622,0.14276917278766632,-0.34667611122131348,-0.052225776016712189,-0.038021758198738098,-0.56747603416442871,-0.12514279782772064,-0.045869935303926468,0.15628494322299957,-0.30550247430801392,0.28333935141563416,0.35148471593856812,-0.18128010630607605,-0.011826427653431892,0.56039142608642578,-0.15046662092208862,-0.016425607725977898,0.20890767872333527,-0.1710001677274704,0.1532118022441864,-0.30340299010276794,-0.15074761211872101,0.48756405711174011,-0.081578224897384644,-0.13738377392292023,-0.058915965259075165, 
  /* [2][0][][] */ -0.023365799337625504,-0.080226495862007141,-0.29024496674537659,0.13164263963699341,-0.017152750864624977,0.27973571419715881,0.17289486527442932,0.027822356671094894,-0.087884999811649323,0.20638591051101685,0.0033813118934631348,0.17402704060077667,0.35507920384407043,-0.53555440902709961,0.070814132690429688,-0.33951249718666077,0.24416372179985046,-0.52238714694976807,0.14042794704437256,0.16507706046104431,-0.12035135179758072,0.29397976398468018,-0.036364484578371048,0.18073324859142303,-0.11349427700042725,0.41312879323959351,-0.13779410719871521,-0.45416134595870972,0.10937654227018356,0.034794457256793976,0.123299241065979,-0.36217594146728516,-0.21501545608043671,-0.53120428323745728,0.23506428301334381,-0.17446133494377136,0.65296453237533569,0.10661450773477554,-0.075135722756385803,-0.38122838735580444,0.016694378107786179,0.083972267806529999,0.46217578649520874,0.13141736388206482,0.72314548492431641,0.12259283661842346,0.15779323875904083,0.14196045696735382, 
  /* [3][0][][] */ -0.038612768054008484,0.18382275104522705,-0.36131048202514648,0.22567452490329742,0.08128618448972702,-0.20265324413776398,-0.38271307945251465,-0.53986507654190063,0.03789321705698967,-0.072354815900325775,-0.18102100491523743,-0.020919501781463623,0.032083515077829361,0.10678925365209579,0.19495929777622223,0.38055458664894104,-0.023646065965294838,0.079374387860298157,-0.17980483174324036,0.14063365757465363,0.035258285701274872,-0.47730302810668945,0.14761421084403992,-0.26246428489685059,-0.41146975755691528,-0.061219643801450729,0.6633751392364502,-0.030345223844051361,-0.28608134388923645,-0.056787759065628052,-0.27369686961174011,0.088221438229084015,-0.021178025752305984,-0.36034342646598816,0.07279060035943985,-0.044186454266309738,-0.10264192521572113,-0.18261905014514923,-0.14125573635101318,0.4736485481262207,-0.20660926401615143,-0.16699451208114624,0.010918575339019299,0.080229543149471283,0.2120508998632431,0.02888667955994606,-0.17956183850765228,0.15020084381103516, 
  /* [4][0][][] */ -0.17884925007820129,-0.31057968735694885,-0.018671970814466476,0.099856816232204437,0.21357639133930206,-0.22596859931945801,-0.054966412484645844,-0.075901098549365997,0.1988111287355423,-0.19299511611461639,0.37405231595039368,-0.50568783283233643,0.067865632474422455,0.22160515189170837,0.071080073714256287,0.092489488422870636,-0.10356093198060989,-0.18002727627754211,0.076751820743083954,-0.10275568813085556,-0.062953293323516846,-0.37662804126739502,-0.0081797083839774132,-0.11161468178033829,0.094796933233737946,-0.028580376878380775,0.27276179194450378,0.3393092155456543,0.25432431697845459,0.15856744349002838,-0.097619757056236267,0.18845479190349579,-0.053245585411787033,-0.018204757943749428,0.058635644614696503,-0.015923520550131798,-0.43571403622627258,0.57553839683532715,0.22616423666477203,-0.23308339715003967,0.15101608633995056,-0.12924237549304962,-0.11156172305345535,-0.12446741014719009,-0.46726158261299133,0.080149255692958832,0.86455792188644409,0.078770466148853302, 
  /* [5][0][][] */ 0.33163625001907349,-0.18980690836906433,-0.0082622841000556946,0.1477864682674408,0.21799810230731964,-0.24620519578456879,0.1982007771730423,-0.9238620400428772,0.2316136360168457,-0.1995665431022644,-0.059298150241374969,0.82509970664978027,-0.55605250597000122,0.51096343994140625,0.21566392481327057,-0.42357158660888672,0.023735711351037025,-0.68982511758804321,0.12521450221538544,-0.023163726553320885,-0.2748488187789917,0.42997676134109497,-0.32698175311088562,-0.27212381362915039,-0.44041883945465088,0.57786017656326294,-0.15095709264278412,-0.0013733071973547339,-0.17649930715560913,0.4269154965877533,-0.31142517924308777,-0.2499363124370575,0.14788056910037994,0.46495479345321655,0.23816625773906708,-0.0058229533024132252,-0.23759718239307404,-0.031163759529590607,-0.32089254260063171,-0.33583667874336243,0.16141662001609802,-0.21661992371082306,-0.28434324264526367,-0.06240588054060936,-0.22203958034515381,0.43503034114837646,0.62862145900726318,0.25737333297729492, 
  /* [6][0][][] */ 0.50869989395141602,-0.16650736331939697,0.2417694479227066,-0.13213644921779633,-0.38050222396850586,-0.18879091739654541,-0.33898860216140747,0.20356269180774689,-0.41894203424453735,-0.0014296964509412646,-0.38456177711486816,1.1584762334823608,-0.42941242456436157,-0.34591281414031982,-0.11230400204658508,0.47308856248855591,0.072687335312366486,0.43056750297546387,0.074674047529697418,0.34072071313858032,0.35898938775062561,-0.76090288162231445,-0.13986882567405701,0.1538093239068985,0.22716991603374481,0.33386996388435364,-0.6163821816444397,0.10017722100019455,0.08003668487071991,-0.36207076907157898,0.051775269210338593,0.40958082675933838,0.085824377834796906,0.18451672792434692,-0.17406047880649567,-0.06779133528470993,0.13006190955638885,-0.017349107190966606,-0.001811533235013485,0.0013524692039936781,-0.050731882452964783,-0.17903609573841095,0.31569737195968628,0.467975914478302,-0.062660686671733856,-0.27010345458984375,0.63067489862442017,-0.18685126304626465, 
  /* [7][0][][] */ -0.20482951402664185,0.015176119282841682,-0.054638881236314774,0.36229801177978516,0.15757958590984344,0.21378828585147858,0.071787111461162567,0.12865498661994934,0.15177290141582489,0.017190579324960709,0.4200720489025116,-0.032201282680034637,0.69092249870300293,0.60031485557556152,0.3451140820980072,0.266397625207901,0.28037497401237488,0.28348833322525024,-0.0017728595994412899,-0.026473727077245712,0.17218571901321411,-0.061786945909261703,-0.42195361852645874,-0.11897937208414078,0.091075874865055084,0.042195688933134079,-0.12247241288423538,0.26492530107498169,0.20760180056095123,-0.092416629195213318,-0.22119398415088654,-0.12854993343353271,0.17233552038669586,0.022660676389932632,0.19710215926170349,-0.46192640066146851,-0.34889531135559082,0.21409048140048981,0.21059368550777435,0.31792178750038147,-0.13419798016548157,0.26893728971481323,0.47790083289146423,0.67441827058792114,-0.30091217160224915,-0.10027802735567093,-0.55875438451766968,0.41905868053436279, 
};
const TfArray<4, int> tensor_dimension20 = { 4, { 8,1,1,48 } };
const ALIGN(16) float tensor_data21[48*1*1*8] = { 
  /* [0][0][][] */ 0.17833858728408813,0.3574104905128479,-0.1590341329574585,-0.20085947215557098,0.007886495441198349,0.1753426194190979,-0.003867229912430048,0.22627860307693481, 
  /* [1][0][][] */ 0.24458293616771698,-0.23786298930644989,0.20091482996940613,-0.36731988191604614,-0.15282653272151947,0.22045215964317322,-0.33654451370239258,-0.10956208407878876, 
  /* [2][0][][] */ -0.031287778168916702,0.1487119197845459,0.17732222378253937,0.052648637443780899,0.15645863115787506,0.0018621371127665043,0.087971873581409454,0.022700764238834381, 
  /* [3][0][][] */ 0.3170279860496521,0.11787541955709457,-0.29115957021713257,0.18525731563568115,0.079649895429611206,-0.31768101453781128,-0.36385500431060791,-0.048342257738113403, 
  /* [4][0][][] */ -0.18140687048435211,0.1326424777507782,0.034794330596923828,-0.30423721671104431,-0.11503750830888748,0.40543419122695923,0.49721124768257141,0.18826295435428619, 
  /* [5][0][][] */ 0.016021357849240303,0.23013842105865479,-0.38783073425292969,-0.21523581445217133,0.064544439315795898,0.28114715218544006,0.075504325330257416,-0.060628123581409454, 
  /* [6][0][][] */ -0.038862951099872589,0.26869726181030273,0.14830560982227325,0.12593258917331696,0.20475499331951141,0.00053661642596125603,0.097628839313983917,-0.29262378811836243, 
  /* [7][0][][] */ 0.12927398085594177,0.01278239581733942,-0.047381151467561722,0.032693080604076385,0.022387048229575157,0.019485782831907272,0.099807210266590118,0.017278751358389854, 
  /* [8][0][][] */ 0.063708499073982239,0.2191237211227417,0.089240871369838715,0.1735362708568573,0.188712477684021,0.15417686104774475,0.16821181774139404,-0.14863449335098267, 
  /* [9][0][][] */ 0.11917620152235031,0.33265772461891174,-0.38830551505088806,-0.17528842389583588,0.0029602304566651583,0.37634909152984619,0.030137980356812477,0.19113403558731079, 
  /* [10][0][][] */ -0.11159433424472809,-0.10420510917901993,0.032714255154132843,-0.11341036856174469,-0.023527076467871666,-0.075155787169933319,-0.072079949080944061,0.20472811162471771, 
  /* [11][0][][] */ 0.058356687426567078,-0.39723539352416992,-0.4210040271282196,-0.093979239463806152,0.11425088346004486,-0.076835699379444122,0.17919443547725677,-0.0024988511577248573, 
  /* [12][0][][] */ -0.039529155939817429,-0.083881087601184845,-0.13458666205406189,-0.053502686321735382,-0.11956514418125153,0.06035064160823822,-0.071926742792129517,0.082679688930511475, 
  /* [13][0][][] */ -0.036405980587005615,0.020834045484662056,-0.33699187636375427,0.34939810633659363,-0.48757043480873108,-0.14131179451942444,-0.019571723416447639,-0.075723938643932343, 
  /* [14][0][][] */ -0.28347375988960266,-0.20835737884044647,-0.44486087560653687,-0.024075824767351151,0.12659130990505219,-0.028101639822125435,-0.013382504694163799,-0.23738840222358704, 
  /* [15][0][][] */ 0.0061169262044131756,-0.088500596582889557,-0.12155989557504654,0.015160287730395794,-0.088179878890514374,-0.022076401859521866,-0.031697459518909454,-0.01802346482872963, 
  /* [16][0][][] */ 0.79961585998535156,-0.42497780919075012,-0.078851856291294098,0.4237096905708313,-0.58869796991348267,0.15068264305591583,0.13567477464675903,0.77816665172576904, 
  /* [17][0][][] */ -0.059254024177789688,0.34063011407852173,0.42939171195030212,-0.07255292683839798,-0.11957737058401108,-0.076816588640213013,-0.091349735856056213,-0.032144177705049515, 
  /* [18][0][][] */ 0.040557265281677246,-0.43415874242782593,0.15120983123779297,0.24447546899318695,0.01837276853621006,-0.16734631359577179,0.19485291838645935,-0.35241538286209106, 
  /* [19][0][][] */ 0.59960085153579712,-0.181871697306633,-0.24471303820610046,0.20702014863491058,-0.39674761891365051,0.013990781269967556,0.14915981888771057,0.40050390362739563, 
  /* [20][0][][] */ -0.088080517947673798,-0.30077427625656128,0.16477374732494354,0.1716369241476059,-0.059957269579172134,-0.19405668973922729,0.0068896296434104443,-0.19738556444644928, 
  /* [21][0][][] */ -0.097106419503688812,-0.30510434508323669,-0.08341573178768158,-0.20485666394233704,0.54980236291885376,-0.010628558695316315,0.1712324470281601,0.10095605999231339, 
  /* [22][0][][] */ -0.64146751165390015,0.072898149490356445,-0.49099144339561462,0.19653388857841492,0.1659269779920578,0.33451250195503235,-0.43743622303009033,-0.583199143409729, 
  /* [23][0][][] */ -0.065471388399600983,-0.050207886844873428,0.024840677157044411,-0.0076402355916798115,-0.084855891764163971,0.10533065348863602,0.12837439775466919,-0.062231715768575668, 
  /* [24][0][][] */ -0.058040503412485123,0.16349224746227264,0.024804310873150826,-0.071700923144817352,-0.087736122310161591,0.35600858926773071,0.26830434799194336,0.018033498898148537, 
  /* [25][0][][] */ -0.13474501669406891,-0.23690034449100494,-0.24450752139091492,-0.14297755062580109,-0.078389823436737061,-0.020213665440678596,-0.024216979742050171,-0.10716328024864197, 
  /* [26][0][][] */ -0.010551733896136284,0.061707053333520889,-0.049379661679267883,0.14823316037654877,-0.19491977989673615,0.074805676937103271,-0.059471998363733292,-0.050029885023832321, 
  /* [27][0][][] */ 0.053659122437238693,-0.44257581233978271,0.095004022121429443,0.34366348385810852,0.030302295461297035,-0.15762357413768768,-0.019523715600371361,-0.51555556058883667, 
  /* [28][0][][] */ 0.016443146392703056,0.21508276462554932,0.17379085719585419,0.15387305617332458,0.18320219218730927,-0.062478296458721161,0.04506957158446312,-0.141322061419487, 
  /* [29][0][][] */ 0.34756547212600708,0.019083576276898384,-0.12467468529939651,-0.04407830536365509,0.17246587574481964,-0.3291606605052948,-0.23162640631198883,0.053185854107141495, 
  /* [30][0][][] */ 0.1349661648273468,0.00038653850788250566,0.32089492678642273,-0.79829961061477661,0.077420942485332489,-0.047556992620229721,0.12381746619939804,-0.15405452251434326, 
  /* [31][0][][] */ 0.25728613138198853,-0.17956654727458954,0.035802245140075684,0.36274760961532593,-0.018761608749628067,0.20496200025081635,0.035810865461826324,0.61220479011535645, 
  /* [32][0][][] */ -0.327381432056427,-0.20763333141803741,0.06422751396894455,-0.24225100874900818,-0.17149096727371216,0.46641933917999268,0.21974077820777893,0.37069046497344971, 
  /* [33][0][][] */ -0.10073907673358917,0.15305070579051971,0.098072037100791931,-0.10046616941690445,0.070088654756546021,0.34158894419670105,-0.28004273772239685,0.17356464266777039, 
  /* [34][0][][] */ 0.062847629189491272,0.4742981493473053,-0.19678397476673126,-0.21927756071090698,0.055866770446300507,0.14999306201934814,-0.173078253865242,0.27584934234619141, 
  /* [35][0][][] */ 0.099370911717414856,-0.47021782398223877,0.15226824581623077,0.2683449387550354,-0.064808063209056854,-0.30854380130767822,0.18746976554393768,-0.31964203715324402, 
  /* [36][0][][] */ -0.086875788867473602,-0.12932029366493225,-0.25946170091629028,0.0037649986334145069,-0.33024582266807556,-0.12938025593757629,-0.02768450602889061,0.020076997578144073, 
  /* [37][0][][] */ -0.1684858649969101,-0.39561212062835693,0.17981435358524323,0.2142530083656311,-0.15845279395580292,-0.24875351786613464,-0.025593820959329605,-0.16274742782115936, 
  /* [38][0][][] */ -0.19527840614318848,0.088042892515659332,0.16430889070034027,-0.16714224219322205,-0.26280999183654785,-0.17172826826572418,-0.14752280712127686,0.21012802422046661, 
  /* [39][0][][] */ 0.26767191290855408,-0.42533621191978455,0.30217862129211426,0.23713196814060211,0.016565795987844467,-0.16185109317302704,-0.11272943019866943,-0.32326230406761169, 
  /* [40][0][][] */ 0.012158413417637348,0.21615502238273621,0.10248082131147385,0.15977512300014496,-0.36650663614273071,-0.08875371515750885,-0.2066008448600769,0.044648140668869019, 
  /* [41][0][][] */ 0.24677099287509918,0.36417576670646667,-0.25215849280357361,-0.30007234215736389,0.11234357208013535,0.090911149978637695,0.031686484813690186,0.022413421422243118, 
  /* [42][0][][] */ -0.098297327756881714,-0.20632487535476685,-0.10629741102457047,0.022898321971297264,0.50329774618148804,0.058815967291593552,0.22816736996173859,0.0536777563393116, 
  /* [43][0][][] */ 0.39492607116699219,0.091838210821151733,0.22065426409244537,0.032184228301048279,-0.19809472560882568,-0.089529223740100861,0.13262218236923218,0.28350368142127991, 
  /* [44][0][][] */ 0.12095798552036285,0.12272445857524872,-0.024775417521595955,0.075049512088298798,0.12565921247005463,-0.30170634388923645,-0.29860958456993103,0.072098016738891602, 
  /* [45][0][][] */ 0.22084324061870575,0.0044423062354326248,0.042811136692762375,0.051182888448238373,0.26530569791793823,-0.55518251657485962,0.026423664763569832,-0.25746458768844604, 
  /* [46][0][][] */ 0.21767576038837433,-0.11557062715291977,-0.0039047047030180693,0.52549058198928833,0.1347423791885376,0.25038352608680725,0.05815235897898674,0.26305681467056274, 
  /* [47][0][][] */ -0.18682338297367096,-0.11627774685621262,0.083394445478916168,0.14297232031822205,-0.055884990841150284,0.036613058298826218,0.2075219601392746,-0.11569561809301376, 
};
const TfArray<4, int> tensor_dimension21 = { 4, { 48,1,1,8 } };
const ALIGN(16) float tensor_data22[8*1*1*48] = { 
  /* [0][0][][] */ -0.18953150510787964,-0.20132772624492645,-0.073087289929389954,-0.20512866973876953,-0.022368993610143661,-0.073795296251773834,0.23648400604724884,0.26179841160774231,-0.28898054361343384,-0.32684299349784851,-0.086199276149272919,0.052423682063817978,-0.17120379209518433,0.0035475243348628283,-0.22976782917976379,0.1140047162771225,-0.24282063543796539,0.055350266396999359,-0.0041966787539422512,0.46964389085769653,0.15212799608707428,-0.18913666903972626,-0.029616119340062141,0.29373276233673096,0.23683670163154602,0.17310835421085358,0.079213611781597137,-0.012064918875694275,-0.3490748405456543,-0.20640763640403748,-0.24829550087451935,-0.18959443271160126,-0.15466421842575073,0.31974709033966064,0.051623255014419556,-0.23876397311687469,0.11746837198734283,-0.12914395332336426,0.30993762612342834,-0.0025983043015003204,0.12243850529193878,0.058808565139770508,0.04433157667517662,-0.38274264335632324,0.064973205327987671,-0.080235213041305542,-0.10180670022964478,-0.29137513041496277, 
  /* [1][0][][] */ -0.053873032331466675,0.14949341118335724,-0.10784701257944107,-0.1264827698469162,-0.25210389494895935,0.21951872110366821,-0.055928722023963928,-0.16668280959129333,-0.13469609618186951,0.24923247098922729,-0.031351979821920395,0.080043606460094452,0.15739771723747253,0.14873974025249481,-0.1516328752040863,-0.043021220713853836,-0.05109807476401329,-0.3789035975933075,0.23689742386341095,-0.1604575514793396,0.38193020224571228,-0.012784515507519245,-0.16218137741088867,0.10423508286476135,0.16538900136947632,0.025110518559813499,-0.24301554262638092,0.19751355051994324,0.11078538745641708,-0.076700948178768158,0.24442125856876373,0.15834064781665802,-0.095207780599594116,-0.090224944055080414,-0.024493193253874779,-0.039528395980596542,0.042619362473487854,0.32562583684921265,-0.058649636805057526,-0.10497722774744034,0.15755103528499603,0.14070551097393036,0.01755174808204174,0.037129238247871399,0.2817961573600769,0.024268683046102524,-0.12952297925949097,0.16734401881694794, 
  /* [2][0][][] */ -0.20857219398021698,-0.25994449853897095,0.72623747587203979,0.04618389904499054,0.55859166383743286,-0.16640521585941315,0.00094978470588102937,0.13792064785957336,-0.23774980008602142,-0.026805978268384933,-0.0090758800506591797,0.31872248649597168,0.0031797727569937706,-0.3046669065952301,-0.31281375885009766,-0.8694303035736084,-0.38586220145225525,-0.63404715061187744,-0.15931645035743713,0.071960590779781342,-0.64066934585571289,0.13872331380844116,-0.29331102967262268,-0.22155894339084625,-0.2460566908121109,0.14663898944854736,0.046212479472160339,-0.38717323541641235,-0.22502093017101288,0.0097202882170677185,-0.16063912212848663,-0.07069871574640274,0.070776790380477905,-0.034328531473875046,0.15156455338001251,-0.013616453856229782,0.23132796585559845,-0.25679287314414978,-0.30628404021263123,0.059225164353847504,0.16807261109352112,-0.21581466495990753,0.19029837846755981,-0.33674454689025879,-0.28426629304885864,-0.3342115581035614,-0.42393893003463745,-0.28654146194458008, 
  /* [3][0][][] */ 0.21208818256855011,0.064123965799808502,0.23665738105773926,0.058471150696277618,0.047951787710189819,-0.17198605835437775,0.098031118512153625,0.28082585334777832,-0.15827427804470062,-0.11126869171857834,0.19156175851821899,-0.078869089484214783,-0.2218460738658905,0.19485025107860565,-0.075875096023082733,0.21590736508369446,0.19062972068786621,0.13225458562374115,-0.11747113615274429,0.13360089063644409,-0.44249767065048218,-0.21499466896057129,0.44251054525375366,-0.011943702585995197,-0.03013482503592968,-0.018725199624896049,-0.16320359706878662,-0.11954636126756668,-0.26435235142707825,0.27061200141906738,0.49660724401473999,-0.24196994304656982,0.065801568329334259,-0.42908254265785217,-0.075782261788845062,0.20913556218147278,-0.041102059185504913,-0.30251821875572205,-0.021589498966932297,0.30611985921859741,-0.2758617103099823,-0.16346234083175659,0.24149046838283539,-0.0093355663120746613,-0.36632764339447021,-0.22333163022994995,0.23804235458374023,-0.020408341661095619, 
  /* [4][0][][] */ 0.15002582967281342,-0.036634162068367004,0.42086544632911682,-0.099153123795986176,0.011623596772551537,-0.12253338843584061,-0.085040479898452759,-0.020882753655314445,-0.27608686685562134,-0.068496301770210266,-0.092423737049102783,0.071082934737205505,0.28940007090568542,-0.39780294895172119,0.25479996204376221,-0.51224344968795776,0.2408922016620636,0.29258710145950317,0.011745301075279713,-0.17211875319480896,0.05144355446100235,0.12771196663379669,0.079678453505039215,0.038413781672716141,-0.059251304715871811,-0.0078105092979967594,0.34110251069068909,-0.14316827058792114,0.14261573553085327,0.14866974949836731,-0.65154677629470825,-0.072560183703899384,-0.11821047961711884,-0.073993906378746033,0.053418755531311035,0.099032126367092133,0.19118264317512512,-0.00084750849055126309,0.20886597037315369,0.022477038204669952,-0.25594261288642883,-0.054832808673381805,-0.37132295966148376,0.23969538509845734,-0.06257900595664978,-0.50157976150512695,0.043613765388727188,0.13908703625202179, 
  /* [5][0][][] */ 0.18728691339492798,-0.23211315274238586,0.37261286377906799,0.18053917586803436,0.23991347849369049,0.087775856256484985,0.18400108814239502,0.0029196552932262421,-0.43586701154708862,0.021676277741789818,-0.24562644958496094,0.15396194159984589,0.11775729805231094,0.019308002665638924,0.030417006462812424,-0.27552542090415955,0.48677420616149902,0.44021892547607422,0.024435553699731827,-0.13198330998420715,0.5435149073600769,-0.27367103099822998,0.72678714990615845,-0.54669278860092163,-0.16029760241508484,0.27292543649673462,0.016239410266280174,0.35028523206710815,0.075818784534931183,0.070907987654209137,-0.2170913964509964,-0.30158847570419312,-0.15414813160896301,-0.23658309876918793,-0.17518503963947296,0.1287466287612915,0.25061047077178955,0.19434520602226257,0.36648169159889221,-0.059908244758844376,-0.47572427988052368,0.13066098093986511,0.16417352855205536,0.13317178189754486,0.34126126766204834,-0.065995387732982635,0.44082659482955933,-0.095730796456336975, 
  /* [6][0][][] */ -0.23972716927528381,0.18755681812763214,-0.4494163990020752,0.3365304172039032,0.18278080224990845,0.085464783012866974,0.098857901990413666,0.040734365582466125,-0.11893219500780106,-0.049555812031030655,0.2122822105884552,-0.32966369390487671,-0.40206825733184814,-0.089406423270702362,-0.10109248757362366,0.067376695573329926,-0.46034231781959534,0.08057083934545517,-0.089694783091545105,0.35107490420341492,0.09325110912322998,0.1502155065536499,-0.30724549293518066,-0.33904105424880981,-0.033315934240818024,-0.036811117082834244,0.07769620418548584,0.25480601191520691,-0.029631232842803001,-0.19033776223659515,-0.17677183449268341,0.020355906337499619,0.1619202047586441,0.25863146781921387,-0.11595986783504486,-0.1315559595823288,0.010881494730710983,-0.053032189607620239,0.26663732528686523,-0.024338042363524437,0.25873956084251404,0.24227079749107361,-0.42289745807647705,-0.27453926205635071,-0.060789883136749268,0.38333836197853088,-0.24230945110321045,-0.16366954147815704, 
  /* [7][0][][] */ 0.15318374335765839,0.23512426018714905,-0.35359081625938416,0.090937040746212006,0.10796237736940384,0.19635578989982605,0.55395317077636719,0.29084917902946472,0.16176453232765198,0.33522948622703552,-0.35633111000061035,-0.033714041113853455,-0.21504923701286316,-0.0044867764227092266,-0.25941020250320435,-0.12507219612598419,0.099322281777858734,0.21408431231975555,0.51344233751296997,0.34751072525978088,0.37914592027664185,0.043859127908945084,0.50973629951477051,0.14820706844329834,0.46173810958862305,0.37240627408027649,-0.24100059270858765,0.37876313924789429,-0.2384461909532547,0.13942515850067139,-0.048686429858207703,-0.23744119703769684,-0.0017713392153382301,-0.21045896410942078,-0.0020986930467188358,0.081380881369113922,0.0072674890980124474,0.34550073742866516,-0.27006316184997559,0.36717876791954041,-0.20115634799003601,0.13090725243091583,-0.070403993129730225,-0.28331762552261353,0.40375992655754089,-0.1439765989780426,0.19743260741233826,-0.081510037183761597, 
};
const TfArray<4, int> tensor_dimension22 = { 4, { 8,1,1,48 } };
const ALIGN(16) float tensor_data23[48*1*1*8] = { 
  /* [0][0][][] */ 0.12889258563518524,0.060019470751285553,0.26396074891090393,-0.071091100573539734,0.13924874365329742,0.22332638502120972,-0.12852799892425537,-0.12621369957923889, 
  /* [1][0][][] */ 0.0057529169134795666,-0.2960960865020752,-0.43964412808418274,0.018879076465964317,0.23891191184520721,0.099476762115955353,0.074493043124675751,-0.010310309007763863, 
  /* [2][0][][] */ -0.54813539981842041,-0.11074565351009369,-0.090340197086334229,-0.15029631555080414,0.23137231171131134,0.084134936332702637,-0.24455885589122772,-0.10707715153694153, 
  /* [3][0][][] */ 0.11372221261262894,0.16001391410827637,0.39273247122764587,-0.21163219213485718,-0.033626843243837357,-0.25415027141571045,-0.040179915726184845,-0.040175650268793106, 
  /* [4][0][][] */ -0.39213931560516357,0.074404381215572357,-0.14376366138458252,-0.072856992483139038,0.13026304543018341,0.057808186858892441,-0.11873562633991241,-0.16626311838626862, 
  /* [5][0][][] */ -0.26467710733413696,0.027047827839851379,-0.18322214484214783,-0.0097258482128381729,0.039979502558708191,0.069526232779026031,-0.22752612829208374,-0.36045408248901367, 
  /* [6][0][][] */ -0.094188764691352844,-0.34093037247657776,-0.29891449213027954,0.11936359107494354,0.30395051836967468,0.019426638260483742,0.03084464929997921,0.10695240646600723, 
  /* [7][0][][] */ -0.088626526296138763,-0.16021555662155151,-0.13398186862468719,-0.10455827414989471,-0.11077127605676651,-0.11442640423774719,0.010232324711978436,0.13377062976360321, 
  /* [8][0][][] */ 0.2759748101234436,0.092323333024978638,-0.012395809404551983,0.0041078845970332623,0.33687731623649597,-0.23913559317588806,-0.37284106016159058,0.044896900653839111, 
  /* [9][0][][] */ -0.062515228986740112,0.11818371713161469,-0.15467353165149689,0.21855288743972778,-0.12023250013589859,-0.10751912742853165,0.30160731077194214,-0.10795636475086212, 
  /* [10][0][][] */ -0.086045347154140472,0.27297714352607727,0.077097594738006592,0.15581278502941132,0.29665997624397278,-0.025384129956364632,-0.029212983325123787,0.12943293154239655, 
  /* [11][0][][] */ -0.17223475873470306,-0.10305788367986679,-0.025846194475889206,-0.0051783500239253044,-0.21273595094680786,0.24057243764400482,0.33132800459861755,-0.020415730774402618, 
  /* [12][0][][] */ 0.19012436270713806,0.14146833121776581,-0.45064249634742737,0.15290257334709167,-0.059243708848953247,-0.080282784998416901,-0.23557350039482117,-0.017000215128064156, 
  /* [13][0][][] */ 0.33133420348167419,-0.067439243197441101,-0.26228287816047668,0.045982237905263901,0.071922242641448975,-0.50826930999755859,-0.11190100014209747,-0.0645318403840065, 
  /* [14][0][][] */ 0.026974659413099289,-0.20770372450351715,0.17236445844173431,0.021926071494817734,0.28612691164016724,-0.23627826571464539,-0.1655953973531723,0.013520538806915283, 
  /* [15][0][][] */ -0.062851905822753906,-0.052442107349634171,0.0098907845094799995,0.19427211582660675,0.11263511329889297,0.10985490679740906,-0.11858255416154861,0.052029155194759369, 
  /* [16][0][][] */ 0.35340675711631775,0.04435749351978302,-0.11712528765201569,0.063662707805633545,0.27111324667930603,-0.31231296062469482,-0.38901925086975098,-0.070830971002578735, 
  /* [17][0][][] */ 0.12682405114173889,0.28471499681472778,0.13087885081768036,0.14658528566360474,0.077353067696094513,0.12931020557880402,0.053442928940057755,-0.20022399723529816, 
  /* [18][0][][] */ 0.048168554902076721,0.01011348981410265,0.014078534208238125,-0.0099527174606919289,0.27496099472045898,0.0067187836393713951,0.025223786011338234,-0.0053059249185025692, 
  /* [19][0][][] */ 0.023590687662363052,0.37546390295028687,0.094774864614009857,0.023864425718784332,-0.44363978505134583,0.077882975339889526,0.11805403977632523,-0.13461600244045258, 
  /* [20][0][][] */ -0.15604104101657867,0.030491678044199944,0.17287488281726837,-0.3530198335647583,0.086497224867343903,0.14581196010112762,-0.055238459259271622,0.31095552444458008, 
  /* [21][0][][] */ -0.074685625731945038,0.15721283853054047,0.090015009045600891,-0.30868873000144958,0.034436412155628204,0.12510323524475098,-0.019922396168112755,0.3023892343044281, 
  /* [22][0][][] */ -0.19424861669540405,-0.21460786461830139,-0.23215685784816742,0.044061183929443359,-0.32021459937095642,0.31742393970489502,0.28077983856201172,-0.042730994522571564, 
  /* [23][0][][] */ 0.19592133164405823,0.050200626254081726,-0.20375607907772064,0.010908517055213451,0.017616122961044312,-0.096331194043159485,-0.14037477970123291,-0.05629497766494751, 
  /* [24][0][][] */ -0.1720157265663147,0.10463283956050873,0.012112647294998169,-0.0047145048156380653,-0.051938377320766449,0.19151356816291809,-0.29297497868537903,0.23905445635318756, 
  /* [25][0][][] */ -0.20814800262451172,-0.096281148493289948,-0.25324791669845581,0.024219805374741554,-0.1346246749162674,-0.15996293723583221,0.11943878978490829,0.22079338133335114, 
  /* [26][0][][] */ 0.13783806562423706,-0.037157207727432251,-0.12923012673854828,-0.10818130522966385,0.31054210662841797,-0.060714691877365112,0.36293172836303711,-0.1883026510477066, 
  /* [27][0][][] */ 0.4108349084854126,-0.2152722179889679,0.086671806871891022,0.29823565483093262,0.00017191786901094019,0.073920421302318573,-0.057199325412511826,0.25975671410560608, 
  /* [28][0][][] */ 0.087710872292518616,0.07693278044462204,0.069060273468494415,-0.020475419238209724,0.17196467518806458,-0.11685133725404739,0.077558629214763641,-0.029019014909863472, 
  /* [29][0][][] */ -0.082337148487567902,-0.051685277372598648,-0.10087671875953674,-0.098692812025547028,-0.16402371227741241,0.073382124304771423,0.3813127875328064,-0.10337014496326447, 
  /* [30][0][][] */ 0.073999464511871338,-0.30697867274284363,-0.12859684228897095,-0.16482743620872498,-0.22015081346035004,0.035008065402507782,0.054856531322002411,-0.097221121191978455, 
  /* [31][0][][] */ 0.01156899519264698,0.027911543846130371,-0.020377026870846748,-0.033581197261810303,-0.22946004569530487,0.017519596964120865,-0.045946720987558365,-0.031848590821027756, 
  /* [32][0][][] */ 0.10619165003299713,-0.11708255112171173,-0.13561980426311493,0.18011356890201569,0.011640154756605625,-0.19729691743850708,0.27029401063919067,-0.24124091863632202, 
  /* [33][0][][] */ 0.11836356669664383,0.20798540115356445,0.046401139348745346,0.11139895021915436,0.14578597247600555,-0.016464803367853165,-0.043068449944257736,-0.018568007275462151, 
  /* [34][0][][] */ -0.37964728474617004,-0.13755626976490021,0.37123781442642212,-0.035629786550998688,-0.044073611497879028,0.33524695038795471,0.30176258087158203,0.021109001711010933, 
  /* [35][0][][] */ -0.052713904529809952,0.18442285060882568,0.39666664600372314,-0.052693016827106476,-0.1729627400636673,-0.21148987114429474,-0.10497311502695084,0.085456088185310364, 
  /* [36][0][][] */ -0.3895891010761261,0.068880915641784668,0.32788625359535217,-0.062108829617500305,-0.051484815776348114,0.43822693824768066,0.26304209232330322,0.13888952136039734, 
  /* [37][0][][] */ -0.051678713411092758,-0.13233472406864166,-0.030418472364544868,-0.23978187143802643,-0.073987722396850586,-0.17584197223186493,0.1320633739233017,0.090226151049137115, 
  /* [38][0][][] */ 0.11556676030158997,-0.011001110076904297,0.19383995234966278,-0.097090676426887512,0.11571004986763,0.10946270823478699,-0.2563377320766449,0.035506065934896469, 
  /* [39][0][][] */ -0.03411034494638443,0.14090274274349213,-0.20164403319358826,-0.069815568625926971,-0.075001642107963562,0.00062894058646634221,0.011147404089570045,0.12699107825756073, 
  /* [40][0][][] */ 0.2257378101348877,-0.24397620558738708,0.1006038635969162,0.066062048077583313,0.031481537967920303,-0.029869070276618004,0.086540848016738892,0.44379803538322449, 
  /* [41][0][][] */ -0.01755869947373867,0.10756025463342667,0.11395882070064545,0.018193084746599197,0.018328333273530006,0.054354459047317505,-0.093706324696540833,0.052663449198007584, 
  /* [42][0][][] */ 0.087825320661067963,-0.1994205117225647,-0.14673155546188354,-0.063939228653907776,-0.20380514860153198,0.0087887505069375038,0.042889103293418884,-0.13693070411682129, 
  /* [43][0][][] */ -0.041535429656505585,-0.28669732809066772,0.089894115924835205,-0.15360938012599945,0.39602810144424438,-0.078098468482494354,0.073765024542808533,0.124265156686306, 
  /* [44][0][][] */ 0.026990598067641258,0.19709749519824982,0.18780599534511566,0.013549976982176304,0.028025627136230469,0.043180160224437714,-0.13891340792179108,0.018739501014351845, 
  /* [45][0][][] */ -0.074266128242015839,0.15786394476890564,0.0041104573756456375,0.25717088580131531,-0.35909855365753174,0.15247294306755066,-0.36919918656349182,0.10886498540639877, 
  /* [46][0][][] */ -0.0984516441822052,-0.11880728602409363,0.13765422999858856,0.0911141037940979,-0.3083493709564209,-0.30773115158081055,-0.060486238449811935,-0.021402368322014809, 
  /* [47][0][][] */ -0.024315206333994865,0.14803412556648254,0.054441016167402267,-0.17028772830963135,-0.25392991304397583,0.10846047103404999,-0.055103249847888947,0.15784505009651184, 
};
const TfArray<4, int> tensor_dimension23 = { 4, { 48,1,1,8 } };
const ALIGN(16) float tensor_data24[16*1*1*48] = { 
  /* [0][0][][] */ 0.20058009028434753,0.20518286526203156,0.15099132061004639,-0.22623339295387268,0.33529424667358398,0.32117527723312378,-0.2403990626335144,0.3168427050113678,-0.040881313383579254,0.64481258392333984,-0.034298811107873917,0.2141716331243515,-0.24866056442260742,0.26969462633132935,-0.030907487496733665,0.28119367361068726,0.14924728870391846,0.44787225127220154,0.19030071794986725,-0.33883622288703918,-0.46450647711753845,0.49325394630432129,-0.078959107398986816,0.32483088970184326,0.38105610013008118,0.19018758833408356,0.25521171092987061,0.26008975505828857,-0.37639510631561279,-0.31055688858032227,-0.089588314294815063,0.51994210481643677,-0.1414811760187149,-0.0035599023103713989,-0.44513624906539917,0.33525657653808594,0.32715496420860291,-0.76340091228485107,-0.27149266004562378,0.13228937983512878,0.14294172823429108,-0.25649052858352661,0.28470894694328308,-0.0083869742229580879,-0.12584505975246429,-0.42745226621627808,-0.36412367224693298,-0.055570710450410843, 
  /* [1][0][][] */ -0.22657695412635803,0.040160700678825378,-0.40653303265571594,-0.16633795201778412,0.004286506213247776,0.44739013910293579,-0.24206081032752991,0.044473517686128616,-0.074311099946498871,-0.17198838293552399,-0.16895999014377594,0.17178083956241608,0.29961058497428894,-0.11849936097860336,-0.14930629730224609,-0.13762560486793518,-0.10212802886962891,-0.10945428907871246,-0.0066086589358747005,0.057526364922523499,-0.27682328224182129,0.19410362839698792,-0.47572702169418335,-0.25876447558403015,-0.23669025301933289,-0.19830220937728882,0.21582940220832825,0.31864526867866516,-0.082915373146533966,-0.13249824941158295,0.22159254550933838,-0.17025727033615112,0.0607595294713974,-0.3107147216796875,-0.13285653293132782,0.23489764332771301,0.024706084281206131,-0.22444978356361389,0.59299743175506592,-0.18569053709506989,-0.11653803288936615,0.13350914418697357,-0.20292189717292786,-0.090689897537231445,0.10168471932411194,0.25326535105705261,0.11346275359392166,0.077080376446247101, 
  /* [2][0][][] */ 0.04411233589053154,-0.059583760797977448,0.43811208009719849,-0.25098994374275208,-0.043791878968477249,-0.5231468677520752,0.17415153980255127,0.074040159583091736,0.61895954608917236,0.41802012920379639,-0.3665001392364502,0.070861563086509705,0.70742452144622803,-0.25417420268058777,0.80752646923065186,0.46806091070175171,-0.42400214076042175,-0.097388170659542084,-0.26970571279525757,0.15101328492164612,0.48278900980949402,-0.431049644947052,-0.20200006663799286,-0.59344774484634399,-0.030243426561355591,-0.21654045581817627,0.19322940707206726,-0.43768593668937683,0.17881803214550018,0.34581699967384338,-0.18068385124206543,0.030763475224375725,0.12062984704971313,-0.1915862113237381,0.29969099164009094,0.2597956657409668,-0.28459051251411438,0.12702825665473938,-0.031870361417531967,-0.1981520801782608,0.18064333498477936,0.17042991518974304,0.31981801986694336,-0.045775845646858215,0.19694787263870239,-0.49023517966270447,0.57541334629058838,-0.3570464551448822, 
  /* [3][0][][] */ 0.36840447783470154,-0.00070012459764257073,-0.15375542640686035,-0.29343709349632263,0.29037067294120789,0.95158946514129639,0.074321486055850983,-0.08060513436794281,0.24999405443668365,-0.40770557522773743,0.16465979814529419,-0.23348432779312134,-0.50432747602462769,0.15156222879886627,0.070206284523010254,0.31470975279808044,-0.41503036022186279,-0.60275709629058838,0.28053289651870728,-0.93449676036834717,-0.10806580632925034,0.050648827105760574,-0.2317647784948349,-0.12461834400892258,-0.29998180270195007,0.77716326713562012,1.0912599563598633,0.48429974913597107,-0.14271941781044006,-0.32318153977394104,0.18559089303016663,0.25587588548660278,0.51500988006591797,-0.11842411756515503,0.75748735666275024,0.31228956580162048,-0.28544875979423523,-0.4436800479888916,-0.0027935572434216738,0.38241532444953918,0.27501276135444641,0.098931849002838135,-0.11078985035419464,-0.0088601214811205864,0.23075082898139954,0.12218394130468369,0.0017443704418838024,-0.099007375538349152, 
  /* [4][0][][] */ 0.55672109127044678,-0.05628654733300209,0.05148971825838089,-0.28064024448394775,0.4639568030834198,0.33585429191589355,0.24951602518558502,-0.0088693508878350258,0.36910581588745117,-0.17291910946369171,-0.5653531551361084,0.1583113968372345,0.29007193446159363,-0.17731617391109467,0.16318492591381073,-0.057384874671697617,-0.45792701840400696,-0.68751335144042969,-0.17292509973049164,-0.51141923666000366,-0.16411575675010681,0.11529538035392761,-0.14154405891895294,-0.27706405520439148,-0.53485876321792603,0.56057173013687134,-0.56705701351165771,0.66667735576629639,-0.3849596381187439,-0.21600763499736786,0.15988528728485107,0.37115654349327087,0.25477325916290283,-0.14007322490215302,-0.043810810893774033,-0.13634057343006134,0.086661390960216522,0.14557139575481415,-0.23907633125782013,0.059415008872747421,-0.30354732275009155,-0.10001052916049957,-0.02922738716006279,0.27034559845924377,-0.15447148680686951,0.52342522144317627,-0.11393056809902191,-0.35596662759780884, 
  /* [5][0][][] */ 0.029919274151325226,-0.10197067260742188,-0.38909474015235901,0.071016736328601837,-0.089701391756534576,0.47864672541618347,0.19363811612129211,-0.12436415255069733,0.49255275726318359,0.35203522443771362,0.27697893977165222,0.55323976278305054,0.318756103515625,-0.093720898032188416,0.25947359204292297,-0.0026729975361377001,-0.31987312436103821,0.9079355001449585,-0.14042544364929199,0.16672107577323914,0.11499588191509247,-0.048813853412866592,-0.38033711910247803,-0.077530562877655029,0.23348657786846161,-0.063208498060703278,-0.51510912179946899,-0.32380962371826172,0.00069005845580250025,0.11748622357845306,0.12268520146608353,-0.050815194845199585,-0.30092766880989075,-0.07677188515663147,0.32984545826911926,0.053545065224170685,-0.39736917614936829,0.012142025865614414,-0.57462185621261597,-0.07151930034160614,0.63585251569747925,-0.091225668787956238,0.271788090467453,0.4115263819694519,-0.13169686496257782,0.11599406599998474,-0.33894336223602295,0.14862586557865143, 
  /* [6][0][][] */ 0.18791002035140991,0.10881419479846954,0.09741634875535965,0.22268500924110413,0.075363948941230774,-0.093519657850265503,0.34357216954231262,-0.1863914430141449,-0.023990005254745483,0.29208418726921082,0.46901702880859375,0.34039419889450073,0.16454745829105377,0.15274728834629059,-0.13410104811191559,0.22223828732967377,0.11331839114427567,-0.20446811616420746,-0.36360350251197815,0.37042766809463501,0.15020683407783508,-0.31800910830497742,-0.17982593178749084,0.18652462959289551,-0.39742332696914673,0.28017231822013855,0.34704664349555969,0.039161715656518936,0.37449926137924194,0.24042055010795593,-0.15424312651157379,-0.031810417771339417,0.35503160953521729,-0.23083968460559845,-0.50999784469604492,-0.054594710469245911,0.40361550450325012,0.13855990767478943,-0.020199673250317574,-0.0011308097746223211,0.067458339035511017,0.22750125825405121,0.18037749826908112,-0.071176730096340179,0.28568089008331299,0.49019438028335571,0.16588407754898071,-0.0066468804143369198, 
  /* [7][0][][] */ -0.56242650747299194,-0.041461087763309479,-0.14108999073505402,0.20284345746040344,-0.31044182181358337,-0.33334481716156006,0.14981217682361603,0.28581038117408752,0.36835503578186035,0.57892900705337524,-0.24666638672351837,-0.35119733214378357,-0.49186918139457703,0.071121327579021454,-0.15218822658061981,-0.12210571020841599,-0.37573146820068359,0.5614657998085022,0.072851233184337616,0.57200944423675537,-0.17921008169651031,0.13851243257522583,0.14362353086471558,0.22984243929386139,-0.15670594573020935,-0.54687613248825073,-0.17988128960132599,-0.40960273146629333,0.18089498579502106,0.24891218543052673,0.0093324305489659309,0.10768355429172516,-0.13765288889408112,0.13671760261058807,0.1350749135017395,-0.14065557718276978,-0.003433123929426074,-0.2714364230632782,0.72302579879760742,-0.010562598705291748,-0.0399010069668293,0.29731932282447815,0.12605015933513641,-0.10936713963747025,0.35588893294334412,0.40920010209083557,-0.16980078816413879,-0.044999968260526657, 
  /* [8][0][][] */ -0.057300496846437454,-0.40224617719650269,0.27615618705749512,-0.2373030036687851,0.29264098405838013,-0.25674495100975037,0.31835064291954041,-0.17009635269641876,-0.19781018793582916,-0.45475801825523376,0.1277945339679718,0.08831217885017395,-0.098412774503231049,-0.012062889523804188,0.095872029662132263,0.087989695370197296,0.030894942581653595,0.045977380126714706,-0.1530756801366806,0.43077734112739563,0.042385347187519073,0.21290072798728943,-0.12065951526165009,0.098041914403438568,0.23955586552619934,0.0062656356021761894,-0.24565525352954865,-0.14388881623744965,-0.54073810577392578,-0.022351793944835663,-0.16515745222568512,-0.4711172878742218,0.025022732093930244,-0.23054197430610657,0.038925100117921829,0.43777310848236084,0.041396625339984894,0.16547219455242157,0.4541032612323761,0.067542746663093567,0.021605784073472023,-0.0056260391138494015,0.24169990420341492,0.48965123295783997,-0.011746490374207497,-0.30984494090080261,-0.15448842942714691,0.40021803975105286, 
  /* [9][0][][] */ 0.13742178678512573,-0.19762937724590302,0.096215620636940002,-0.24014008045196533,0.13103735446929932,0.2638305127620697,-0.11679014563560486,0.1514151394367218,0.12621079385280609,-0.22232052683830261,-0.1607121080160141,-0.054368019104003906,0.11619089543819427,-0.23948107659816742,0.53051406145095825,-0.044676840305328369,0.058451589196920395,-0.50729340314865112,0.19050011038780212,0.12879250943660736,-0.30389180779457092,0.18035481870174408,0.2094292938709259,-0.19917698204517365,-0.13696518540382385,-0.37757205963134766,-0.1274891197681427,0.32541969418525696,0.26665544509887695,0.32794114947319031,-0.16622613370418549,-0.069234862923622131,-0.22922608256340027,0.10159005969762802,-0.12246567755937576,0.57349264621734619,-0.14211703836917877,-0.19250780344009399,-0.27501204609870911,-0.15105508267879486,-0.14987340569496155,-0.056770879775285721,0.16615976393222809,0.55991244316101074,0.19889174401760101,0.31757038831710815,-0.32682693004608154,0.031390000134706497, 
  /* [10][0][][] */ -0.04703173041343689,0.10463567078113556,-0.15587279200553894,-0.014801770448684692,0.11972878873348236,0.1590677797794342,-0.30478757619857788,-0.27264979481697083,0.23977592587471008,0.14999720454216003,0.35617047548294067,-0.0069806389510631561,-0.15147885680198669,-0.081909827888011932,0.24687790870666504,-0.22028928995132446,-0.29689103364944458,0.73045748472213745,0.032093547284603119,0.23000802099704742,0.023860279470682144,-0.032426699995994568,0.062887385487556458,0.12727783620357513,-0.2230679839849472,0.28683292865753174,0.027030803263187408,0.51881098747253418,0.22519183158874512,0.06234804168343544,-0.15222042798995972,-0.019428843632340431,0.40244573354721069,0.039685647934675217,-0.014733626507222652,0.16975285112857819,-0.020864835008978844,-0.20954141020774841,-0.18723404407501221,0.10504578053951263,-0.42653697729110718,0.036539729684591293,0.06512489914894104,-0.081659592688083649,0.085305117070674896,0.2482612133026123,0.13007396459579468,0.19384795427322388, 
  /* [11][0][][] */ -0.23665767908096313,0.38518339395523071,-0.19128827750682831,0.31797266006469727,0.21554404497146606,0.48173704743385315,0.053344670683145523,-0.013241696171462536,0.10854985564947128,0.14885319769382477,-0.8878021240234375,-0.47478127479553223,0.5728803277015686,0.04693467915058136,-0.10838977992534637,-0.35147112607955933,0.039861626923084259,0.24958445131778717,-0.26399630308151245,-0.39069303870201111,-0.050130855292081833,-0.10648158937692642,0.7128177285194397,-0.041795209050178528,0.33725839853286743,0.11017266660928726,-0.17027904093265533,0.29511967301368713,0.0090084196999669075,0.21537989377975464,-0.020573455840349197,0.40785974264144897,0.19164605438709259,-0.075303345918655396,-0.31371220946311951,-0.041079454123973846,0.22207224369049072,0.62053614854812622,0.79918664693832397,0.1397460401058197,0.22497439384460449,-0.21938864886760712,0.53744816780090332,-0.064441680908203125,-0.49722495675086975,-0.084714949131011963,0.56338733434677124,-0.012962798587977886, 
  /* [12][0][][] */ -0.32620453834533691,0.025246806442737579,0.20791248977184296,0.064525097608566284,-0.23261500895023346,-0.30143296718597412,-0.0084601566195487976,0.034445382654666901,-0.2253299355506897,-0.23179394006729126,-0.66509312391281128,0.040569592267274857,0.33512657880783081,-0.51341855525970459,0.10679979622364044,0.19144995510578156,0.21230395138263702,0.51786375045776367,0.35743877291679382,-0.56877273321151733,-0.21481858193874359,0.28987154364585876,-0.21084234118461609,-0.40845334529876709,0.056929290294647217,-0.0070149502716958523,0.23863339424133301,-0.15434911847114563,-0.024726241827011108,0.034103706479072571,-0.11591517180204391,0.33561283349990845,0.39722013473510742,0.39040538668632507,0.15503969788551331,-0.11974644660949707,-0.26141840219497681,-0.14953090250492096,0.14464709162712097,0.058855243027210236,-0.10430900752544403,0.011445116251707077,0.34574908018112183,0.0034115237649530172,0.26730963587760925,-0.08520691841840744,-0.14498735964298248,-0.11986019462347031, 
  /* [13][0][][] */ -0.22811709344387054,-0.45081374049186707,-0.2459404468536377,-0.48057070374488831,0.0021666926331818104,0.14145384728908539,0.20626668632030487,0.065401516854763031,-0.49123069643974304,0.071736335754394531,0.48428568243980408,-0.3218035101890564,0.21172812581062317,0.258424311876297,0.58146655559539795,-0.0080291004851460457,0.44347044825553894,0.061663195490837097,-0.067311719059944153,-0.41342732310295105,0.30556726455688477,-0.36091792583465576,0.56965965032577515,0.067261457443237305,-0.37231722474098206,-0.03233511745929718,-0.11951426416635513,0.069467812776565552,-0.18231275677680969,-0.46508598327636719,-0.47915536165237427,0.030917199328541756,0.17821088433265686,-0.16924220323562622,-0.25216981768608093,0.28069305419921875,0.036339689046144485,-0.24002081155776978,0.311881422996521,-0.3944641649723053,-0.024113066494464874,0.21641981601715088,0.28294256329536438,0.22487257421016693,0.17277199029922485,-0.10427264124155045,0.49262276291847229,-0.29798868298530579, 
  /* [14][0][][] */ 0.33167034387588501,0.12566637992858887,-0.2217363566160202,0.0084550641477108002,-0.19379331171512604,0.046928320080041885,-0.47942286729812622,-0.045051708817481995,-0.12554851174354553,0.27717038989067078,0.28730997443199158,0.20815485715866089,-0.10219024866819382,-0.26860877871513367,-0.011232439428567886,-0.28377896547317505,0.25968837738037109,-0.60042852163314819,0.1069556325674057,0.094578102231025696,0.45090878009796143,-0.37411788105964661,0.15414954721927643,0.0358085036277771,-0.02263270691037178,0.64174574613571167,-0.37803611159324646,0.024871787056326866,-0.31182357668876648,-0.18868397176265717,-0.45810937881469727,-0.03291427344083786,0.57164955139160156,0.28867968916893005,0.53289246559143066,-0.078926689922809601,-0.4490831196308136,0.039722025394439697,-0.098931804299354553,0.35877341032028198,-0.13978426158428192,-0.26268044114112854,0.48711720108985901,-0.2014717310667038,-0.28230178356170654,-0.2661193311214447,-0.2417333722114563,0.31596758961677551, 
  /* [15][0][][] */ -0.35439983010292053,0.10295967012643814,0.15195165574550629,0.076051786541938782,0.46020084619522095,0.0060298382304608822,-0.013668615370988846,0.18168362975120544,0.098829850554466248,0.41230550408363342,-0.09858722984790802,0.24916110932826996,0.24432124197483063,-0.069227814674377441,-0.18584160506725311,-0.034512482583522797,0.041097555309534073,0.15756258368492126,0.02885083295404911,-0.13560870289802551,0.15663641691207886,-0.20836839079856873,-0.25078776478767395,-0.2341439425945282,0.2116677463054657,-0.32588687539100647,-0.17798063158988953,0.32515719532966614,-0.22261060774326324,-0.00015422680007759482,0.037920825183391571,0.039145145565271378,-0.29422304034233093,-0.005055802408605814,0.64817112684249878,-0.022981492802500725,-0.51544457674026489,0.027916643768548965,0.26905792951583862,-0.041940603405237198,-0.15435238182544708,-0.084830410778522491,0.06672174483537674,-0.050245806574821472,-0.14480486512184143,-0.16551738977432251,-0.047335520386695862,0.035202030092477798, 
};
const TfArray<4, int> tensor_dimension24 = { 4, { 16,1,1,48 } };
const ALIGN(16) float tensor_data25[96*1*1*16] = { 
  /* [0][0][][] */ 0.057255785912275314,0.10326037555932999,-0.096174843609333038,0.09181647002696991,-0.37262952327728271,0.024442385882139206,0.37793236970901489,0.072968043386936188,0.12780608236789703,0.33868056535720825,0.038058597594499588,0.18611210584640503,0.010441776365041733,0.10017930716276169,0.0029161500278860331,0.33860486745834351, 
  /* [1][0][][] */ -0.079985566437244415,0.055531729012727737,-0.16011936962604523,0.018676303327083588,0.25162038207054138,0.17020945250988007,-0.03574642539024353,0.032389078289270401,-0.035914923995733261,0.031576607376337051,-0.13510163128376007,0.070506185293197632,-0.14710010588169098,0.12526294589042664,-0.06594143807888031,-0.090688064694404602, 
  /* [2][0][][] */ -0.082059964537620544,0.26577916741371155,0.31852257251739502,-0.0036005212459713221,0.25264686346054077,0.37963899970054626,0.04096585139632225,0.15847279131412506,0.17237861454486847,-0.042219847440719604,0.21793818473815918,-0.033933877944946289,0.26793521642684937,-0.54356282949447632,-0.047388792037963867,0.050975106656551361, 
  /* [3][0][][] */ 0.48976513743400574,-0.050087098032236099,0.031932622194290161,-0.011155511252582073,0.12046971917152405,0.18719753623008728,-0.0073178950697183609,0.059759877622127533,0.099840834736824036,0.11638731509447098,-0.18712291121482849,-0.023407483473420143,-0.14334070682525635,0.15289716422557831,-0.054978854954242706,0.16902446746826172, 
  /* [4][0][][] */ -0.1852976381778717,-0.089115418493747711,-0.031339887529611588,0.04443548247218132,-0.38995668292045593,0.03487759456038475,-0.1950094997882843,-0.047680757939815521,-0.075788006186485291,0.035529531538486481,-0.070337176322937012,-0.21495522558689117,0.00089099403703585267,0.061332643032073975,-0.1147036999464035,0.42197871208190918, 
  /* [5][0][][] */ -0.090109944343566895,0.0046186209656298161,0.022039813920855522,0.024898214265704155,0.098792046308517456,0.02062726765871048,-0.0093492595478892326,-0.014228665269911289,-0.037912826985120773,0.029462963342666626,-0.02492797002196312,0.012421288527548313,-0.073116831481456757,0.065569370985031128,-0.061530169099569321,-0.050625454634428024, 
  /* [6][0][][] */ -0.51505154371261597,0.11603063344955444,-0.19570708274841309,0.071923218667507172,-0.10109452158212662,-0.23542153835296631,0.22248651087284088,0.034627269953489304,0.013772906735539436,-0.087165981531143188,-0.19059213995933533,0.11673696339130402,-0.016451310366392136,0.012429007329046726,-0.05309465155005455,0.037666738033294678, 
  /* [7][0][][] */ 0.043452546000480652,0.29446709156036377,0.17536453902721405,-0.17422513663768768,0.24848847091197968,0.23538759350776672,0.25200912356376648,-0.018128523603081703,0.15894702076911926,0.062649533152580261,0.060375452041625977,0.13777120411396027,0.15190275013446808,0.082223273813724518,-0.070974402129650116,-0.017461610957980156, 
  /* [8][0][][] */ -0.035865429788827896,-0.030981477349996567,-0.088598579168319702,0.12327621877193451,-0.052046336233615875,0.14367504417896271,-0.089020870625972748,-0.061542663723230362,0.037474066019058228,-0.052994959056377411,0.1305621862411499,0.089501857757568359,0.16664257645606995,0.023705713450908661,-0.11631107330322266,0.0093450387939810753, 
  /* [9][0][][] */ -0.20331847667694092,-0.37000349164009094,-0.14930430054664612,0.23361189663410187,-0.12468760460615158,-0.13423889875411987,0.034626629203557968,0.2679903507232666,0.059064373373985291,0.24391995370388031,0.079996451735496521,0.21146151423454285,-0.3248763382434845,0.091615281999111176,0.04139363020658493,-0.037503823637962341, 
  /* [10][0][][] */ -0.032431256026029587,-0.009562869556248188,-0.092326536774635315,0.050910137593746185,-0.094845600426197052,0.12861542403697968,0.062069423496723175,-0.095000430941581726,0.0024557653814554214,-0.049202445894479752,0.075470462441444397,-0.024925170466303825,0.0078475214540958405,0.099263310432434082,-0.067193597555160522,0.096913516521453857, 
  /* [11][0][][] */ -0.20055972039699554,-0.33099749684333801,-0.00667592603713274,0.23739111423492432,0.086764797568321228,0.20375184714794159,0.014994326047599316,-0.020298874005675316,0.19283342361450195,0.13289988040924072,0.21189033985137939,-0.28672605752944946,0.033139560371637344,0.34693017601966858,-0.46947047114372253,0.37148472666740417, 
  /* [12][0][][] */ -0.13337545096874237,-0.20283696055412292,-0.26481571793556213,0.20505715906620026,-0.39543196558952332,-0.41899317502975464,0.10776890814304352,0.16864117980003357,0.20006556808948517,0.21481947600841522,-0.073396377265453339,0.31686604022979736,-0.054805062711238861,-0.20346879959106445,-0.030859906226396561,-0.0092916311696171761, 
  /* [13][0][][] */ -0.41649830341339111,-0.15776722133159637,-0.23099713027477264,-0.057993151247501373,-0.087135434150695801,0.054225150495767593,0.23137445747852325,0.079136088490486145,-0.15057766437530518,0.80272579193115234,-0.025781648233532906,-0.10509128123521805,0.28768324851989746,0.18948493897914886,0.10481147468090057,-0.034485548734664917, 
  /* [14][0][][] */ -0.32947373390197754,-0.054918535053730011,-0.054321739822626114,-0.08153139054775238,-0.053088679909706116,0.25484061241149902,-0.099334798753261566,-0.17888478934764862,0.25597423315048218,-0.066313706338405609,0.13974876701831818,0.10009728372097015,0.11404410004615784,-0.064760223031044006,-0.20732040703296661,-0.24146866798400879, 
  /* [15][0][][] */ 0.03142925351858139,-0.24932907521724701,0.2191985696554184,-0.14192089438438416,-0.087122209370136261,-0.10203153640031815,-0.017150202766060829,0.13833726942539215,0.057548720389604568,-0.075301676988601685,-0.22655579447746277,-0.055576901882886887,0.14756728708744049,-0.097624398767948151,-0.07853168249130249,-0.12359989434480667, 
  /* [16][0][][] */ -0.096679441630840302,-0.018834337592124939,0.060729246586561203,-0.20047564804553986,0.1082761213183403,0.18287009000778198,-0.037118200212717056,-0.1683938205242157,0.22429193556308746,-0.3652360737323761,0.14104229211807251,-0.057818122208118439,-0.07131166011095047,0.068867973983287811,-0.30627718567848206,-0.26727202534675598, 
  /* [17][0][][] */ -0.094580620527267456,-0.0067071951925754547,0.0295456163585186,-0.17973421514034271,0.030169039964675903,0.048835247755050659,-0.10870881378650665,0.01411628071218729,0.27450934052467346,-0.19581449031829834,0.11010679602622986,0.14576584100723267,0.26159766316413879,-0.23671320080757141,-0.13370653986930847,-0.273805171251297, 
  /* [18][0][][] */ 0.19752815365791321,0.0080797914415597916,-0.12127918750047684,-0.34406757354736328,-0.017632022500038147,-0.061027701944112778,0.32675516605377197,-0.14674827456474304,0.052333824336528778,0.18965059518814087,0.028740528970956802,0.25290879607200623,0.028793942183256149,0.22931069135665894,-0.018723247572779655,-0.33098849654197693, 
  /* [19][0][][] */ -0.038944635540246964,-0.021268213167786598,-0.052226297557353973,-0.049985926598310471,-0.17850694060325623,0.020003028213977814,-0.045645806938409805,0.014717372134327888,0.049127399921417236,-0.071444958448410034,0.050244081765413284,-0.17537371814250946,-0.039825867861509323,-0.03904062882065773,0.016955476254224777,-0.012662488035857677, 
  /* [20][0][][] */ 0.016974978148937225,0.17733284831047058,0.19584901630878448,-0.31497547030448914,0.2331920862197876,0.014760171063244343,-0.12465523928403854,0.24316458404064178,-0.38135886192321777,-0.39634695649147034,0.10176795721054077,-0.2552000880241394,-0.070617794990539551,0.29178458452224731,2.7147036234964617e-05,-0.02362053282558918, 
  /* [21][0][][] */ 0.063578791916370392,-0.22408437728881836,-0.22947262227535248,0.07881484180688858,0.26015043258666992,0.025043575093150139,0.07232830673456192,0.24122881889343262,-0.21935516595840454,-0.14367423951625824,0.010456359945237637,0.016657194122672081,0.21533441543579102,-0.27067559957504272,-0.0021177704911679029,0.031602423638105392, 
  /* [22][0][][] */ 0.25389859080314636,-0.05068105086684227,0.36763516068458557,-0.040227469056844711,0.026710927486419678,0.00060209701769053936,0.28498834371566772,0.11055273562669754,0.107188880443573,0.64998626708984375,0.13448739051818848,0.10430042445659637,0.064492262899875641,-0.0045017213560640812,0.52930736541748047,-0.029377998784184456, 
  /* [23][0][][] */ -0.22363777458667755,-0.1338922381401062,-0.10403954982757568,0.16414318978786469,0.22478380799293518,0.14144487679004669,0.047893296927213669,0.023353194817900658,-0.013160710223019123,0.0068077938631176949,0.056447040289640427,-0.18616963922977448,-0.072086922824382782,0.18014843761920929,0.1572888195514679,0.37558466196060181, 
  /* [24][0][][] */ 0.057850591838359833,-0.05315772071480751,0.09003826230764389,0.068699941039085388,0.060698140412569046,-0.077083133161067963,0.017159067094326019,-0.079286582767963409,0.0673179030418396,0.15735331177711487,-0.17955319583415985,0.084954105317592621,0.012534306384623051,-0.093780294060707092,0.0991973876953125,-0.10237576812505722, 
